{
    "layers": [
        {
            "name": "input",
            "type": "input",
            "size": 335
        },
        {
            "name": "blstm_level_0",
            "type": "blstm",
            "size": 40,
            "bias": 1
        },
        {
            "name": "blstm_level_1",
            "type": "blstm",
            "size": 30,
            "bias": 1
        },
        {
            "name": "output",
            "type": "feedforward_identity",
            "size": 1,
            "bias": 1
        },
        {
            "name": "postoutput",
            "type": "sse",
            "size": 1
        }
    ],
    "weights": {
        "blstm_level_0": {
            "input": [
                -0.105767,
                0.0974671,
                -0.060505,
                0.0722493,
                0.235793,
                -0.0769431,
                0.0508033,
                0.0174569,
                -0.129569,
                0.0185371,
                0.0184359,
                0.112355,
                0.0407113,
                -0.0321305,
                -0.0292421,
                -0.0706478,
                -0.191729,
                0.0996395,
                0.0894279,
                0.0519184,
                0.132457,
                0.0932953,
                0.150615,
                -0.0146328,
                0.00429063,
                0.0696164,
                -0.0257187,
                0.0138316,
                0.0582858,
                0.0786877,
                0.0952766,
                0.0864179,
                0.0397389,
                0.121594,
                -0.0946072,
                0.015212,
                0.0341734,
                0.0892091,
                0.0140229,
                0.00678423,
                0.201336,
                0.0266724,
                -0.113246,
                -0.0771125,
                -0.0467878,
                0.0431448,
                -0.0606006,
                0.109321,
                -0.130707,
                0.094886,
                -0.00648817,
                0.00475106,
                0.0151304,
                0.0946366,
                -0.0273018,
                0.0131589,
                -0.0484265,
                -0.131472,
                0.0598266,
                0.0682467,
                0.0149465,
                0.0792805,
                -0.0751604,
                0.167794,
                0.0108179,
                0.0767802,
                0.129246,
                0.0426191,
                -0.00339741,
                0.0181938,
                0.132173,
                -0.0432272,
                -0.140126,
                -0.0791048,
                -0.210554,
                -0.0583638,
                0.0155043,
                -0.0154653,
                0.115111,
                0.00192883,
                0.0867427,
                0.217467,
                0.0743215,
                -0.196198,
                0.042125,
                -0.00131299,
                0.131122,
                -0.0388775,
                -0.18345,
                -0.155813,
                -0.08734,
                -0.057907,
                -0.083706,
                -0.152203,
                0.126198,
                0.196652,
                0.0671462,
                -0.062722,
                -0.11495,
                -0.0791444,
                -0.136351,
                -0.00215138,
                0.119018,
                -0.0872138,
                0.055672,
                -0.0443565,
                -0.054009,
                -0.0475291,
                -0.174372,
                0.0541063,
                -0.0406107,
                -0.238631,
                -0.14373,
                0.0698119,
                -0.0441409,
                0.0257082,
                -0.0877947,
                -0.125309,
                0.201493,
                0.00845817,
                -0.0203997,
                -0.0730858,
                -0.0440069,
                -0.0667522,
                0.083507,
                0.0742814,
                -0.145624,
                -0.00855073,
                0.114141,
                -0.0106825,
                0.0319626,
                -0.0230081,
                0.0866269,
                -0.175362,
                0.0694069,
                -0.0942594,
                0.0699121,
                0.24,
                -0.00500144,
                0.0834297,
                -0.0983414,
                -0.0310648,
                -0.0296422,
                0.0602932,
                -0.0843698,
                0.00690859,
                -0.0515965,
                -0.0639527,
                -0.0753518,
                0.0357963,
                0.0166342,
                -0.0502286,
                0.0191002,
                0.00682996,
                0.0899315,
                0.026821,
                0.0392947,
                -0.0549732,
                -0.0985789,
                -0.0479512,
                0.143583,
                -0.0354665,
                0.00555646,
                0.224199,
                0.0185847,
                0.0630911,
                0.165865,
                -0.139147,
                -0.0956136,
                -0.129217,
                0.130985,
                0.185305,
                -0.0328805,
                -0.062999,
                -0.12977,
                -0.0594738,
                -0.0579424,
                0.0405483,
                0.176151,
                -0.0679584,
                0.0720979,
                0.115005,
                -0.00686256,
                0.0106405,
                0.00980379,
                0.141362,
                -0.0554862,
                -0.0311641,
                0.0328615,
                -0.0188915,
                0.0617194,
                0.127259,
                -0.106534,
                0.0365408,
                -0.0758772,
                0.0113913,
                -0.0578308,
                0.150705,
                0.0950451,
                -0.0704442,
                0.127956,
                0.177584,
                -0.0268617,
                -0.190539,
                0.204339,
                0.118359,
                -0.106848,
                -0.00864227,
                -0.057244,
                -0.218391,
                -0.0140931,
                0.0821531,
                0.146966,
                0.0134687,
                0.00792233,
                0.0581035,
                0.00923204,
                -0.0435105,
                -0.185877,
                -0.081487,
                -0.181924,
                0.0425809,
                0.0335158,
                0.130541,
                -0.0946132,
                0.10638,
                -0.0605985,
                -0.0283049,
                -0.0201953,
                -0.00465506,
                0.181137,
                0.168096,
                0.00424642,
                0.084264,
                -0.0845891,
                -0.225745,
                -0.0261677,
                0.196699,
                -0.159024,
                -0.0333349,
                -0.109371,
                0.138136,
                0.0248813,
                -0.0137466,
                -0.196688,
                0.0329973,
                -0.0455153,
                -0.0633612,
                -0.0670684,
                -0.13103,
                -0.0136515,
                -0.171122,
                0.0232142,
                0.174886,
                0.172299,
                0.0140498,
                -0.0643047,
                0.203075,
                0.0561929,
                0.19584,
                -0.142633,
                0.178681,
                0.0216728,
                0.0573996,
                -0.0130225,
                -0.295975,
                0.0148064,
                0.00296723,
                -0.165135,
                0.229907,
                -0.0993007,
                -0.0371146,
                -0.0896625,
                0.0276317,
                -0.095314,
                -0.0249744,
                0.0129325,
                0.0280227,
                0.0852143,
                0.0717251,
                -0.0502446,
                -0.050936,
                0.0999656,
                0.0762989,
                -0.0616311,
                -0.121346,
                0.173577,
                0.0577589,
                0.0672113,
                0.122929,
                -0.00586064,
                -0.113514,
                -0.0804009,
                -0.0483081,
                0.0198518,
                0.171904,
                0.0300162,
                0.130686,
                -0.0408369,
                0.0141414,
                3.05304e-05,
                -0.0839784,
                -0.115507,
                0.106111,
                -0.0998226,
                0.148702,
                -0.00102734,
                0.0646912,
                -0.108062,
                -0.019125,
                -0.0661256,
                -0.066168,
                0.0626319,
                0.00160519,
                -0.118099,
                0.111136,
                -0.127319,
                0.119281,
                0.0576659,
                0.00573216,
                -0.020498,
                0.068709,
                0.0427335,
                0.136528,
                -0.033797,
                -0.146852,
                0.00975306,
                0.0138835,
                -0.0661166,
                -0.0578108,
                -0.170628,
                -0.108072,
                -0.0456461,
                0.0486203,
                -0.115806,
                0.0897455,
                0.0915348,
                0.183718,
                0.15507,
                -0.0212725,
                -0.0781659,
                0.00111822,
                0.158045,
                0.134819,
                -0.0053266,
                0.202231,
                -0.190861,
                0.0742299,
                0.0194775,
                -0.0436445,
                0.0204391,
                -0.161724,
                0.065376,
                -0.126297,
                0.227408,
                0.0776337,
                -0.130815,
                0.106087,
                -0.184528,
                0.084811,
                0.0231699,
                0.00709927,
                0.213432,
                -0.153978,
                -0.0781396,
                -0.207265,
                0.0541285,
                0.127756,
                0.0506532,
                0.0616575,
                0.00247096,
                -0.0956804,
                -0.0689745,
                -0.112777,
                -0.0349807,
                0.0862224,
                -0.0457946,
                0.0222522,
                -0.0378355,
                -0.031088,
                0.148333,
                0.0696892,
                0.0744971,
                0.0244921,
                -0.141127,
                -0.133561,
                -0.0504588,
                -0.170929,
                -0.0166433,
                0.00755044,
                0.0441022,
                0.103774,
                0.0914362,
                -0.0334403,
                -0.169988,
                -0.129334,
                0.0466735,
                0.0673138,
                -0.154122,
                -0.0998563,
                0.126555,
                -0.189674,
                0.0414614,
                -0.0246537,
                0.0607306,
                0.0018113,
                0.157005,
                -0.0725772,
                0.0303101,
                -0.136306,
                0.0242817,
                -0.0436398,
                0.221055,
                -0.112189,
                -0.05668,
                0.0901394,
                -0.0560054,
                0.00723845,
                0.0592257,
                -0.251531,
                -0.124149,
                -0.265525,
                0.0161551,
                0.0698206,
                0.0174638,
                0.0833696,
                0.0316538,
                -0.0791262,
                -0.0203672,
                -0.0850031,
                0.00787697,
                0.0689723,
                -0.0320416,
                -0.067152,
                -0.00511697,
                0.126947,
                0.201847,
                0.0787724,
                0.0248508,
                -0.00222536,
                0.00635931,
                -0.141091,
                -0.0852185,
                -0.032988,
                -0.110697,
                -0.0716615,
                -0.0111951,
                0.0740273,
                -0.0701969,
                -0.0951006,
                0.0487446,
                0.239111,
                0.101276,
                -0.044208,
                0.0056734,
                0.0771838,
                0.0968684,
                -0.0149945,
                0.018105,
                -0.0763444,
                -0.0207394,
                -0.0672885,
                0.0481736,
                0.0163407,
                -0.0979659,
                0.0994109,
                -0.019584,
                0.207469,
                -0.151467,
                -0.146168,
                0.078937,
                -0.0462078,
                0.0192041,
                0.00240485,
                -0.0507206,
                0.146687,
                0.0859268,
                -0.0610071,
                0.0229491,
                0.0957467,
                0.0872817,
                -0.189993,
                -0.0840957,
                -0.064894,
                0.0208351,
                -0.0351719,
                0.000248906,
                0.0544922,
                0.0273234,
                0.108998,
                0.0581385,
                -0.132385,
                0.0386206,
                -0.0578718,
                -0.211709,
                0.0160576,
                0.0306993,
                0.142108,
                0.10862,
                0.0682494,
                -0.0479773,
                -0.0463482,
                -0.0492319,
                0.0329596,
                0.0949056,
                -0.072793,
                0.0118772,
                0.0355093,
                0.00468535,
                0.0828112,
                0.108176,
                0.0235416,
                -0.0776526,
                0.100662,
                0.0508384,
                -0.0772937,
                0.219379,
                0.0426617,
                -0.0246931,
                -0.147147,
                0.0911559,
                0.137352,
                -0.0825791,
                0.0384209,
                0.0293491,
                -0.213917,
                0.143549,
                -0.00314422,
                -0.0532561,
                -0.0378055,
                0.0588002,
                -0.202292,
                -0.0516497,
                -0.0514219,
                0.017334,
                0.0513955,
                -0.21206,
                0.00212033,
                0.148925,
                0.0214391,
                -0.169685,
                0.0764283,
                -0.0880945,
                -0.0462827,
                0.0035729,
                0.034379,
                -0.0692554,
                -0.0173268,
                -0.104653,
                0.11692,
                0.0774635,
                -0.122536,
                -0.102705,
                0.207558,
                -0.0391288,
                0.0383882,
                0.0914018,
                -0.14832,
                -0.0477344,
                -0.157542,
                -0.00317846,
                0.00947308,
                0.030044,
                0.00156559,
                0.0445612,
                -0.0622544,
                0.00274475,
                -0.0732441,
                0.0656268,
                -0.0641854,
                -0.00372427,
                -0.142383,
                0.0836026,
                0.0533261,
                0.226683,
                -0.0187895,
                -0.100566,
                -0.0108629,
                0.0361303,
                -0.0488863,
                0.0816235,
                0.0448865,
                -0.0150008,
                0.0839398,
                0.0756549,
                -0.0787677,
                0.0566646,
                0.0557668,
                0.00967577,
                0.0600355,
                0.0694475,
                -0.00494209,
                0.126528,
                0.121705,
                -0.168058,
                -0.029684,
                -0.0915213,
                -0.0639613,
                -0.109398,
                -0.153292,
                -0.0942494,
                0.107435,
                -0.115446,
                -0.00678504,
                -0.196672,
                -0.00310176,
                -0.0150136,
                0.0767864,
                0.0353641,
                0.0919454,
                -0.215415,
                0.0232709,
                -0.0811195,
                0.12123,
                0.0198193,
                -0.118422,
                -0.0416944,
                0.0610488,
                0.0487341,
                0.0798932,
                -0.175821,
                -0.122262,
                0.0352934,
                0.199318,
                -0.0857994,
                0.0501042,
                0.114913,
                -0.0243109,
                0.234462,
                -0.147823,
                0.148416,
                0.0900724,
                0.0764985,
                -0.0876632,
                -0.0971452,
                -0.215333,
                -0.0321271,
                0.0901393,
                -0.046007,
                -0.0593934,
                -0.00244991,
                -0.144425,
                -0.196122,
                0.134364,
                0.0123823,
                0.176031,
                0.0616181,
                0.043534,
                0.144688,
                0.0466217,
                0.146765,
                0.0713074,
                0.0238666,
                0.127269,
                -0.0689283,
                0.0959806,
                -0.0794997,
                -0.249651,
                -0.0432854,
                -0.00458971,
                -0.10826,
                0.231618,
                0.0214829,
                0.00369031,
                -0.0322539,
                0.125889,
                -0.0865485,
                -0.20084,
                0.0168164,
                0.160327,
                -0.168578,
                -0.106262,
                -0.141001,
                0.05341,
                -0.0406835,
                -0.0345473,
                0.0709935,
                0.120418,
                -0.197363,
                -0.0677235,
                -0.026163,
                0.0101266,
                0.14939,
                -0.0752912,
                -0.0439695,
                -0.0766673,
                -0.118478,
                -0.180205,
                -0.082016,
                -0.165084,
                -0.0790175,
                -0.0332253,
                -0.0265631,
                0.0461111,
                0.0782498,
                -0.0758372,
                0.101686,
                0.0526436,
                0.0020795,
                -0.000810994,
                -0.111848,
                0.175759,
                -0.0821209,
                0.103067,
                -0.0663669,
                -0.274184,
                -0.0622726,
                -0.0744386,
                0.0966139,
                -0.166678,
                0.162336,
                -0.105216,
                0.0309273,
                0.0374904,
                -0.00546091,
                -0.0420596,
                -0.0655902,
                -0.0828839,
                0.0930623,
                -0.0868026,
                -0.183198,
                0.147987,
                -0.0143384,
                0.122612,
                0.145898,
                0.0412621,
                0.0263364,
                0.0687194,
                -0.124194,
                0.252684,
                -0.0625158,
                -0.0762193,
                -0.175742,
                -0.00793401,
                -0.0957288,
                -0.2018,
                -0.207412,
                -0.130466,
                0.267127,
                0.0492709,
                0.147464,
                0.0328283,
                0.0268495,
                0.029737,
                -0.0805518,
                -0.141487,
                -0.0296977,
                -0.0501581,
                -0.0919041,
                -0.0448061,
                -0.115942,
                0.0520007,
                -0.00619419,
                0.012708,
                0.0525337,
                0.00743987,
                -0.095578,
                -0.0332231,
                0.0213533,
                -0.0405421,
                0.0781557,
                -0.0949525,
                -0.107129,
                -0.0541981,
                0.0231678,
                -0.0763656,
                -0.0134668,
                0.071494,
                0.0101088,
                -0.0314291,
                0.0246823,
                -0.0999343,
                0.203023,
                -0.0981101,
                -0.0360219,
                0.116534,
                0.24517,
                0.0333638,
                -0.152679,
                0.0255786,
                -0.0211081,
                0.130327,
                -0.108676,
                -0.142702,
                0.085515,
                -0.0228272,
                0.0562609,
                -0.0406425,
                -0.041558,
                -0.142787,
                0.0337001,
                -0.0779798,
                -0.1019,
                -0.0636294,
                0.00487588,
                -0.101624,
                0.157998,
                -0.0287179,
                -0.00681776,
                -0.0439614,
                -0.00848841,
                -0.00359437,
                -0.186332,
                0.163443,
                0.0395871,
                -0.0104225,
                -0.0882768,
                0.0604159,
                0.100758,
                0.0831261,
                -0.0576866,
                -0.0680322,
                -0.0164796,
                -0.0286457,
                0.0142373,
                -0.0943886,
                -0.0674895,
                0.212847,
                0.0262157,
                0.0202853,
                -0.0997598,
                -0.0731934,
                0.00678086,
                -0.0167872,
                -0.0389028,
                0.00192075,
                -0.133147,
                -0.00492398,
                -0.00641419,
                -0.0654759,
                0.102425,
                0.051638,
                0.0808841,
                -0.122214,
                0.0195908,
                0.0136435,
                0.295418,
                -0.0682143,
                -0.000474929,
                -0.157761,
                0.182617,
                -0.0469683,
                0.000659396,
                0.0344192,
                0.00754781,
                0.0383727,
                0.0586762,
                -0.210983,
                -0.112707,
                -0.117753,
                -0.155479,
                0.0719197,
                0.117237,
                -0.118911,
                0.0596607,
                -0.0555841,
                -0.118603,
                0.110318,
                -0.0149718,
                0.0750393,
                -0.0344942,
                -0.0625791,
                0.129065,
                0.158757,
                -0.10115,
                -0.0650083,
                -0.00149524,
                0.00232812,
                -0.0213975,
                0.108767,
                -0.107559,
                0.113281,
                0.0584412,
                -0.00129399,
                -0.0231201,
                0.101118,
                0.0723048,
                0.0264965,
                0.119109,
                0.107756,
                -0.120698,
                -0.119784,
                0.129186,
                0.15611,
                0.00991629,
                -0.120457,
                0.0244515,
                -0.0944897,
                0.174077,
                -0.00547491,
                -0.0298417,
                -0.152948,
                0.136695,
                -0.126144,
                -0.0733026,
                -0.136347,
                -0.128732,
                0.000103174,
                -0.0693762,
                -0.117719,
                -0.0318797,
                0.013432,
                -0.0307281,
                -0.0617669,
                -0.0487131,
                -0.0168783,
                -0.0422294,
                -0.0316927,
                0.195938,
                0.0184047,
                0.0972661,
                -0.0824209,
                -0.0537346,
                0.0206838,
                0.048657,
                0.0941833,
                -0.00408329,
                0.0509639,
                0.0639394,
                -0.183165,
                0.0278648,
                -0.052066,
                0.0470062,
                -0.0730025,
                0.0546968,
                0.327818,
                -0.186223,
                0.0530309,
                0.0155416,
                0.120754,
                -0.00427612,
                -0.154628,
                -0.0339964,
                0.0238648,
                0.0168758,
                0.00526472,
                0.0913146,
                -0.00135235,
                0.087197,
                -0.0208409,
                0.0446882,
                -0.175059,
                0.159439,
                -0.0297921,
                0.260781,
                -0.044189,
                -0.0370783,
                0.0634742,
                0.0434748,
                -0.0792195,
                0.0592622,
                -0.143899,
                -0.00457265,
                -0.038482,
                -0.211395,
                -0.0671449,
                -0.0535237,
                0.078027,
                -0.0319536,
                -0.0745061,
                0.127547,
                -0.056274,
                0.102718,
                0.139102,
                -0.105082,
                0.0065237,
                -0.0433069,
                -0.0391488,
                -0.152061,
                -0.02087,
                0.0347479,
                -0.196326,
                0.226481,
                0.0474919,
                0.0497866,
                0.0453502,
                0.127831,
                -0.0332984,
                0.0952323,
                -0.01571,
                0.0934237,
                0.226109,
                0.0322864,
                0.0204025,
                0.152154,
                -0.175242,
                -0.123609,
                0.0162641,
                0.136318,
                0.192908,
                0.00119944,
                0.147123,
                -0.0185707,
                -0.0409214,
                0.193741,
                0.0697946,
                -0.0384165,
                -0.0916714,
                0.0190612,
                0.0831208,
                0.179193,
                -0.0855907,
                0.0196644,
                0.0383093,
                -0.0267224,
                -0.000617696,
                0.15162,
                0.0568257,
                0.146871,
                0.10263,
                -0.000698802,
                -0.0075323,
                -0.129032,
                -0.00942425,
                -0.0462197,
                0.0148444,
                -0.107824,
                -0.0828198,
                -0.0744028,
                -0.129119,
                -0.0758718,
                0.0150547,
                0.00703934,
                0.101512,
                0.0184328,
                0.0874384,
                -0.169397,
                -0.0381911,
                0.0760725,
                -0.00552197,
                -0.0828841,
                -0.20358,
                -0.0986879,
                -0.0906919,
                0.0934509,
                0.0485306,
                -0.151245,
                0.131834,
                -0.0393031,
                0.02339,
                -0.0600781,
                0.126875,
                0.0312182,
                -0.103625,
                -0.0775865,
                0.100557,
                0.0161042,
                -0.0677688,
                0.0402863,
                -0.040703,
                0.0657755,
                0.0723735,
                -0.0485571,
                0.0294913,
                -0.113347,
                0.0666093,
                0.113262,
                0.0558474,
                -0.179852,
                -0.147547,
                -0.0387623,
                -0.110238,
                0.0372648,
                -0.114946,
                -0.0674507,
                0.190213,
                0.0749333,
                -0.125511,
                -0.105863,
                -0.010686,
                -0.123112,
                0.0336001,
                0.0219811,
                0.0306889,
                0.0164842,
                -0.0579125,
                0.0862581,
                -0.054162,
                -0.00337982,
                0.0193691,
                0.0489146,
                -0.0939356,
                -0.0129823,
                -0.0040721,
                0.012829,
                -0.0193588,
                0.00705153,
                -0.0840049,
                0.166845,
                -0.101912,
                -0.0421395,
                -0.115916,
                0.0410762,
                -0.117171,
                0.0235762,
                0.0736148,
                -0.17347,
                0.197332,
                0.134915,
                0.128948,
                -0.0517661,
                -0.0790294,
                0.00810068,
                0.0515094,
                -0.0298507,
                -0.189326,
                -0.117144,
                0.137914,
                -0.122123,
                -0.0460237,
                0.0665572,
                -0.0500248,
                0.0383257,
                -0.0705309,
                -0.174667,
                -0.0373789,
                0.124354,
                -0.141426,
                0.0369929,
                0.0378115,
                -0.118874,
                0.0877464,
                0.0139504,
                0.0340483,
                0.0791098,
                0.0997328,
                0.0256244,
                -0.0483474,
                -0.186393,
                -0.140105,
                -0.116043,
                0.147335,
                -0.0388049,
                -0.0416512,
                0.104128,
                0.050927,
                0.00840391,
                0.116337,
                0.0466848,
                -0.168999,
                0.101569,
                0.0412361,
                0.219248,
                0.0379654,
                -0.01178,
                -0.0526547,
                -0.0216257,
                0.0921972,
                -0.0522649,
                -0.0436435,
                0.0992235,
                -0.0135044,
                -0.147507,
                -0.0103894,
                0.11373,
                -0.082049,
                -0.179152,
                -0.0441223,
                -0.0516454,
                -0.154989,
                0.0983941,
                0.142559,
                -0.116688,
                -0.0508687,
                -0.0853676,
                0.0324651,
                -0.0401651,
                -0.179499,
                -0.0186787,
                -0.0414363,
                -0.164404,
                -0.0314834,
                -0.110527,
                -0.0924184,
                0.126752,
                0.12108,
                0.176897,
                -0.0609417,
                -0.020086,
                0.0147031,
                0.0155478,
                0.0730847,
                0.0459312,
                0.0829405,
                -0.168735,
                0.0552628,
                0.133467,
                0.0196765,
                -0.0544314,
                -0.0233458,
                -0.20336,
                0.0579652,
                -0.0131187,
                0.0175623,
                0.108728,
                0.0423656,
                -0.125219,
                0.128454,
                0.169371,
                0.0242798,
                -0.115059,
                -0.187601,
                -0.100135,
                0.0118933,
                -0.0796812,
                0.00314026,
                0.113672,
                -0.023667,
                -0.0475322,
                0.132204,
                0.0827606,
                0.118593,
                0.0621053,
                -0.00798316,
                0.0126637,
                -0.0132143,
                -0.121531,
                -0.0135688,
                -0.203604,
                0.0410253,
                0.104851,
                -0.119861,
                0.0384294,
                0.12658,
                -0.0297683,
                -0.194237,
                -0.0322347,
                0.0878648,
                -0.022223,
                -0.0583965,
                0.116718,
                0.0413398,
                0.100779,
                -0.109216,
                0.0301876,
                -0.0425927,
                0.0189934,
                0.0168426,
                -0.00298747,
                -0.137463,
                0.00907608,
                -0.153259,
                0.0234447,
                0.122703,
                -0.21869,
                -0.0216588,
                -0.0632508,
                -0.142746,
                0.131055,
                -0.0702422,
                0.102351,
                -0.265122,
                0.0575718,
                0.0164655,
                0.195896,
                0.0361998,
                -0.0899255,
                0.249919,
                0.0900953,
                0.130163,
                -0.00543422,
                -0.198656,
                -0.10668,
                -0.0320623,
                -0.0322732,
                -0.0074678,
                -0.00275831,
                0.0267641,
                0.163726,
                -0.0406781,
                -0.0538568,
                -0.0797491,
                0.0505253,
                0.028322,
                0.195484,
                -0.0326022,
                -0.010756,
                0.107302,
                0.149277,
                -0.11432,
                0.0274703,
                -0.0816631,
                -0.122137,
                -0.00663538,
                0.178924,
                -0.116689,
                -0.0883557,
                0.123947,
                0.0127997,
                -0.145864,
                -0.0393026,
                0.166722,
                0.146742,
                0.113542,
                0.0629752,
                0.0382611,
                0.107195,
                -0.0888951,
                0.0623218,
                0.0348395,
                0.116348,
                -0.0671397,
                0.0111664,
                0.0336216,
                0.110073,
                -0.0348761,
                0.0495324,
                -0.0144519,
                -0.0124416,
                -0.157183,
                0.053939,
                0.0605605,
                -0.0431435,
                -0.107395,
                -0.0833931,
                0.0996147,
                0.0526146,
                0.170758,
                -0.0659105,
                0.178014,
                -0.0492743,
                -0.0925952,
                -0.0371531,
                -0.0793476,
                0.0121348,
                0.144208,
                0.103103,
                -0.0405964,
                -0.0380132,
                0.121066,
                0.0571238,
                0.0879241,
                -0.00938381,
                0.106517,
                0.0374715,
                -0.129542,
                0.221418,
                -0.0383752,
                0.00727621,
                -0.145802,
                0.0607195,
                -0.0370418,
                0.286529,
                0.0291308,
                0.0402215,
                -0.102557,
                -0.0110293,
                0.121522,
                0.00203193,
                0.036389,
                -0.177485,
                -0.0157628,
                0.0367467,
                -0.0773752,
                -0.0166312,
                -0.0214487,
                0.087451,
                -0.0980644,
                0.118869,
                0.0454878,
                0.0187909,
                -0.0480733,
                -0.0854361,
                0.110876,
                -0.0522234,
                0.0658791,
                0.14317,
                -0.162147,
                -0.115568,
                -0.0655209,
                -0.118373,
                -0.0051064,
                0.0599417,
                0.0910204,
                0.037798,
                -0.0916807,
                0.0807483,
                0.202437,
                -0.0960958,
                0.0109463,
                0.00858743,
                0.0100721,
                0.22095,
                -0.0177447,
                0.068465,
                -0.038095,
                0.0439877,
                0.135707,
                -0.0660326,
                0.0386964,
                -0.0622243,
                -0.0219278,
                0.0730363,
                -0.102639,
                0.000705479,
                0.0100025,
                -0.0625281,
                0.0951415,
                0.131084,
                -0.097665,
                -0.0857711,
                0.107053,
                -0.0562152,
                -0.0603285,
                0.0937166,
                -0.065004,
                0.153029,
                -0.0140938,
                -0.217233,
                0.247958,
                0.270019,
                0.0317861,
                -0.0772888,
                -0.0524549,
                0.0187179,
                0.279457,
                0.0260413,
                -0.0883364,
                0.0908536,
                0.0458342,
                0.0715186,
                0.0196858,
                0.0106691,
                -0.130276,
                0.0924387,
                -0.0118539,
                0.0797249,
                0.0439961,
                0.078719,
                0.0580191,
                0.0784431,
                -0.165554,
                -0.185059,
                0.0847139,
                0.00903419,
                0.0654557,
                -0.171111,
                0.0924104,
                0.0185055,
                -0.0635116,
                0.173467,
                0.00591816,
                -0.0736902,
                0.0521018,
                -0.119663,
                -0.110643,
                0.0579783,
                -0.0774543,
                0.0707728,
                -0.0133468,
                -0.115774,
                0.0651973,
                0.0856821,
                -0.00865322,
                -0.0865692,
                0.0994208,
                -0.0525513,
                -0.0595777,
                0.141272,
                -0.0434784,
                0.0404824,
                0.0205699,
                0.0693901,
                0.0521566,
                0.0228674,
                0.097021,
                0.0304031,
                0.0504104,
                -0.11597,
                -0.0249307,
                -0.132402,
                -0.067748,
                -0.107031,
                -0.0177994,
                -0.0237415,
                0.108733,
                -0.0142383,
                -0.143512,
                0.195432,
                0.125136,
                0.0313049,
                0.0280202,
                -0.0176479,
                0.0387495,
                0.02317,
                0.0686794,
                -0.144911,
                0.0894868,
                -0.0180895,
                0.0539963,
                -0.194887,
                -0.172849,
                -0.100806,
                -0.0704356,
                0.154789,
                -0.241446,
                -0.14472,
                0.196991,
                -0.0831342,
                -0.144882,
                -0.0181813,
                -0.228555,
                -0.0374876,
                0.114893,
                -0.0206236,
                0.112597,
                0.0359236,
                -0.279072,
                0.129229,
                -0.0446152,
                -0.0969745,
                -0.0695847,
                0.141163,
                -0.00485605,
                -0.0163178,
                -0.041514,
                0.0989358,
                0.10444,
                0.111192,
                -0.0959661,
                0.00395646,
                0.0824372,
                -0.0351972,
                0.0877143,
                0.0996408,
                -0.149637,
                -0.122864,
                -0.156483,
                0.107184,
                0.121691,
                -0.192615,
                -0.121885,
                -0.0316787,
                0.0884185,
                0.157735,
                -0.00108291,
                -0.153019,
                -0.119554,
                -0.118101,
                0.021578,
                -0.0231285,
                -0.10761,
                0.0711136,
                0.05703,
                -0.0561501,
                0.128986,
                -0.15439,
                -0.00507893,
                -0.269413,
                -0.0582464,
                0.0214652,
                0.0344546,
                0.010053,
                0.0357046,
                -0.00462621,
                0.0353125,
                -0.0871304,
                0.0043011,
                -0.0718118,
                -0.186216,
                0.112752,
                0.0901478,
                0.128636,
                -0.00318152,
                0.0688353,
                -0.17149,
                -0.0525031,
                -0.0976333,
                0.110802,
                -0.0120033,
                0.0949354,
                0.135396,
                -0.104279,
                -0.027361,
                0.0571559,
                -0.0438002,
                0.0408349,
                0.0163013,
                0.00515743,
                0.0545062,
                0.0386111,
                -0.131939,
                -0.0348637,
                0.138571,
                0.065056,
                0.0187927,
                -0.179046,
                -0.0234427,
                0.0211069,
                0.0599092,
                0.0181878,
                -0.14663,
                0.0432151,
                0.0185525,
                0.109188,
                0.0329104,
                -0.0834528,
                -0.0338568,
                -0.0126703,
                -0.0575815,
                -0.160238,
                -0.00751202,
                -0.122584,
                -0.0407617,
                -0.115077,
                0.0753174,
                0.0202019,
                0.0681553,
                -0.117494,
                -0.0888911,
                0.233964,
                -0.0494002,
                0.0662929,
                -0.0627026,
                -0.0739285,
                0.102166,
                0.162565,
                0.0433252,
                0.0511005,
                -0.187228,
                -0.196286,
                0.0281203,
                -0.251659,
                -0.0111442,
                -0.110827,
                0.0167486,
                -0.155622,
                0.0401338,
                -0.0300198,
                0.0316672,
                0.105523,
                -0.0229871,
                0.0710538,
                0.0288446,
                -0.406757,
                0.0402113,
                0.0525331,
                0.0558113,
                -0.0343073,
                0.0492197,
                0.204789,
                -0.185477,
                0.167191,
                -0.127531,
                0.0450922,
                -0.131116,
                -0.170594,
                0.102115,
                -0.113786,
                0.0177544,
                0.0469887,
                0.0789494,
                0.121441,
                0.0540786,
                -0.0425118,
                -0.0612717,
                -0.152243,
                -0.0737771,
                0.00866894,
                -0.0225651,
                -0.011378,
                0.138208,
                0.15095,
                -0.0549233,
                0.125964,
                0.0140368,
                -0.116599,
                -0.0753764,
                0.118795,
                0.00137276,
                -0.132814,
                0.0841586,
                -0.129805,
                -0.0799766,
                0.0193881,
                0.0518701,
                -0.00870633,
                -0.0211999,
                0.00207872,
                0.0415366,
                -0.225563,
                -0.108199,
                -0.00317836,
                -0.0530766,
                0.158751,
                -0.0696107,
                0.0436425,
                0.14799,
                -0.0398139,
                0.0985019,
                0.11309,
                -0.122951,
                -0.104212,
                0.0529485,
                0.0524515,
                -0.0868632,
                0.118326,
                -0.0113383,
                0.00541825,
                0.125266,
                -0.104263,
                0.13583,
                -0.0119507,
                -0.0342077,
                -0.103914,
                0.108816,
                0.0614913,
                -0.0510476,
                -0.127518,
                0.00143894,
                0.0621573,
                -0.0245738,
                -0.103299,
                0.0353798,
                -0.0380548,
                0.191662,
                -0.037709,
                -0.0333532,
                0.147322,
                -0.167544,
                -0.117055,
                -0.0565859,
                -0.0381094,
                0.088986,
                -0.00491056,
                -0.00967132,
                -0.0152601,
                -0.0289744,
                -0.00611972,
                -0.228678,
                0.114221,
                -0.0285979,
                0.0795528,
                -0.227162,
                0.134848,
                0.0407858,
                0.0422033,
                0.14109,
                0.124544,
                -0.0670128,
                -0.114673,
                0.000400914,
                0.0828717,
                0.121256,
                0.0655626,
                0.1154,
                0.00829715,
                0.0460501,
                -0.0397481,
                -0.0896299,
                -0.0331518,
                0.0598998,
                0.0377459,
                0.143158,
                -0.0625017,
                -0.159564,
                -0.190423,
                -0.19585,
                -0.067922,
                0.0427032,
                0.00665926,
                -0.0568537,
                0.0214395,
                -0.0166323,
                -0.0381221,
                0.0207882,
                -0.0185225,
                0.020004,
                -0.0591295,
                0.175788,
                0.0881349,
                -0.125891,
                0.143014,
                -0.0747948,
                -0.0455704,
                0.0307201,
                -0.110479,
                0.00977099,
                -0.133551,
                -0.0403607,
                0.156294,
                -0.0830094,
                0.034185,
                -0.181716,
                0.0811639,
                0.288231,
                -0.105601,
                0.0578906,
                -0.0374219,
                -0.0644089,
                0.00948429,
                -0.139154,
                -0.0514839,
                -0.0186152,
                0.0457992,
                -0.0866969,
                0.00184737,
                0.0992269,
                -0.13145,
                -0.0515444,
                -0.0835099,
                -0.0504421,
                -0.057399,
                0.203844,
                0.086219,
                -0.0278877,
                -0.076598,
                0.0663484,
                0.0289673,
                -0.111152,
                -0.078026,
                -0.0448966,
                -0.130764,
                0.167885,
                -0.0559245,
                -0.0860095,
                -0.102769,
                0.148736,
                0.0214183,
                -0.021498,
                -0.191259,
                0.132019,
                0.0455806,
                -0.131521,
                0.179325,
                0.0255709,
                -0.0417657,
                0.166898,
                -0.0980633,
                -0.142922,
                0.0981544,
                0.0999954,
                0.00859483,
                -0.0604716,
                -0.0513449,
                0.20306,
                -0.169445,
                -0.086039,
                -0.0673308,
                0.0728851,
                0.0143931,
                0.137572,
                -0.0294358,
                -0.000936643,
                -0.0926123,
                -0.0286524,
                -0.266477,
                0.0148501,
                -0.0660901,
                -0.0924182,
                -0.218897,
                0.0323516,
                0.0450823,
                -0.0454027,
                -0.0179245,
                -0.0360589,
                0.0338826,
                -0.168217,
                -0.121288,
                -0.122548,
                0.0389728,
                0.0788156,
                0.0286397,
                -0.0377161,
                -0.052715,
                0.0528277,
                0.0690881,
                0.0201456,
                -0.21591,
                -0.14165,
                0.0855118,
                -0.11911,
                0.00337687,
                -0.0773459,
                0.289753,
                0.0491019,
                -0.0382456,
                -0.0621254,
                -0.0609211,
                -0.143318,
                0.0012236,
                0.0142783,
                0.0149599,
                0.237686,
                0.0204428,
                0.123965,
                -0.0681999,
                0.0669602,
                -0.0672843,
                -0.0536672,
                -0.1203,
                -0.0417743,
                -0.00553296,
                0.0627357,
                -0.0620149,
                0.0052476,
                0.0533365,
                -0.0318301,
                -0.0153543,
                -0.0202989,
                -0.160209,
                -0.0123981,
                -0.158921,
                -0.0124129,
                0.116508,
                0.0986676,
                -0.128607,
                0.0709808,
                -0.0204359,
                0.140533,
                -0.0662123,
                0.102612,
                -0.0940129,
                0.00892709,
                0.0755589,
                0.0491972,
                0.00796271,
                -0.019215,
                -0.0631311,
                -0.0671728,
                0.101887,
                0.151552,
                0.0831333,
                0.165201,
                -0.0848041,
                -0.199457,
                -0.106353,
                0.0820233,
                0.161644,
                -0.0174777,
                -0.140704,
                -0.0235044,
                -0.0157762,
                -0.00254582,
                0.0766172,
                0.0508926,
                0.0839713,
                -0.0349359,
                0.0536056,
                -0.165522,
                0.262477,
                -0.0245966,
                0.00646724,
                0.0854106,
                0.0359844,
                0.101522,
                -0.158012,
                -0.000621402,
                -0.0481024,
                -0.146544,
                -0.0426396,
                -0.0504273,
                0.0110938,
                0.0632367,
                -0.0373013,
                0.0351141,
                -0.144075,
                -0.0430996,
                0.100246,
                -0.092942,
                -0.0743542,
                0.115105,
                -0.0625691,
                -0.114159,
                0.0979883,
                0.0581804,
                0.184523,
                -0.262114,
                0.121505,
                0.0129361,
                0.0782216,
                0.0370844,
                -0.222081,
                0.0646356,
                -0.0609283,
                -0.0551963,
                0.0562299,
                0.0603638,
                0.0149197,
                0.0765471,
                -0.0120192,
                -0.0884783,
                -0.00394885,
                0.144521,
                -0.116054,
                -0.0840644,
                -0.196028,
                -0.00377111,
                0.126885,
                0.089133,
                0.117078,
                -0.0855856,
                0.0318617,
                -0.0466114,
                -0.06353,
                -0.0569308,
                0.139014,
                -0.0682803,
                -0.151845,
                -0.0868624,
                -0.0714032,
                0.0164735,
                -0.0678212,
                -0.00903747,
                0.0337319,
                -0.0196239,
                -0.138039,
                0.153961,
                -0.176476,
                0.216801,
                -0.0872702,
                0.0208181,
                -0.0373211,
                -0.221393,
                0.0274422,
                -0.0201484,
                -0.00426777,
                0.185409,
                0.255197,
                0.091447,
                0.0337405,
                0.0359012,
                -0.13955,
                -0.0422448,
                -0.113404,
                0.0535971,
                0.111022,
                0.119801,
                0.06244,
                -0.0187813,
                0.215222,
                0.294849,
                -0.00928294,
                -0.00508643,
                0.149129,
                -0.0781301,
                0.00528844,
                0.0403193,
                0.0865453,
                -0.218637,
                -0.0391025,
                0.0368826,
                0.159546,
                -0.0271496,
                0.0519532,
                -0.00620089,
                -0.011545,
                -0.0266037,
                -0.104158,
                0.0182884,
                0.083905,
                -0.0458362,
                0.135249,
                0.172561,
                -0.225934,
                0.0180438,
                0.0352455,
                0.0145026,
                0.0372591,
                -0.169798,
                0.0936241,
                -0.136109,
                0.0679649,
                0.00339391,
                -0.156868,
                0.224109,
                0.0427599,
                -0.00571845,
                -0.0892053,
                -0.0450639,
                -0.0357697,
                -0.0501536,
                -0.0346571,
                0.0514045,
                0.112408,
                -0.0404021,
                -0.0563224,
                0.021071,
                0.0953568,
                0.0215199,
                -0.15057,
                -0.0712901,
                0.0172288,
                -0.163567,
                0.0314869,
                -0.0417861,
                0.0396544,
                0.108609,
                0.0795037,
                -0.0257279,
                -0.0241813,
                0.221029,
                0.0900705,
                0.0489037,
                0.0592101,
                -0.0732461,
                0.0251179,
                0.169703,
                -0.0303047,
                0.0845886,
                -0.12408,
                0.00262149,
                0.0859116,
                0.0322809,
                0.0227202,
                0.113674,
                0.181608,
                0.0273486,
                -0.0465143,
                0.00264108,
                0.0161106,
                -0.00673472,
                -0.103181,
                -0.0806137,
                0.109774,
                -0.026599,
                -0.0859791,
                -0.0449654,
                0.108633,
                0.11193,
                -0.0531901,
                -0.029447,
                0.136087,
                0.070428,
                0.0375684,
                -0.290329,
                0.128182,
                -0.0887822,
                -0.0722494,
                -0.0447805,
                -0.0651297,
                -0.127925,
                -0.0970034,
                -0.111595,
                -0.0902328,
                0.0979614,
                -0.0324526,
                0.0567688,
                -0.0218734,
                -0.0855207,
                0.00113035,
                0.051608,
                0.129368,
                0.110798,
                0.148263,
                0.0274262,
                0.0708098,
                0.0460124,
                0.0373521,
                -0.110945,
                -0.0531572,
                -0.0644987,
                -0.0141962,
                0.0596765,
                0.0131221,
                -0.054347,
                0.082159,
                -0.07685,
                0.13502,
                0.185531,
                0.00736316,
                0.0842773,
                0.0946036,
                0.222965,
                -0.0233946,
                0.0725925,
                0.149586,
                0.112932,
                0.0184897,
                0.112119,
                -0.171708,
                0.0941496,
                -0.177113,
                0.0638517,
                -0.017235,
                0.191076,
                0.0276538,
                -0.147032,
                0.134649,
                -0.131045,
                0.0511939,
                0.0191155,
                -0.0443809,
                -0.00679625,
                -0.1235,
                0.0290871,
                0.000523995,
                0.0349704,
                0.0689871,
                0.0713651,
                -0.105523,
                -0.00438937,
                0.0954648,
                0.100983,
                -0.0173843,
                -0.0173997,
                0.0655066,
                0.0716406,
                0.0463343,
                -0.0758689,
                -0.0663012,
                -0.164281,
                0.0657462,
                -0.0895701,
                0.156825,
                0.0926476,
                0.0427688,
                0.259988,
                -0.1295,
                -0.0678559,
                -0.040272,
                0.0686697,
                0.0176577,
                -0.0663959,
                -0.00419644,
                -0.00310418,
                0.0342229,
                -0.234655,
                -0.0770641,
                0.081457,
                0.0982462,
                0.104368,
                -0.0393755,
                0.0196118,
                0.00266732,
                0.0283848,
                0.116208,
                -0.0149671,
                0.0406585,
                -0.235079,
                0.0968884,
                -0.130974,
                -0.220284,
                0.0199595,
                0.0869347,
                0.00899002,
                -0.0869501,
                -0.0102713,
                -0.0108574,
                -0.0947282,
                -0.0598785,
                -0.0827016,
                0.0488531,
                0.0828287,
                -0.140217,
                0.0340042,
                0.0313716,
                0.0226742,
                0.033387,
                0.0419948,
                0.00968379,
                0.115018,
                0.0787191,
                -0.151606,
                -0.0143916,
                0.145068,
                0.0317799,
                0.0989845,
                0.0175494,
                -0.159536,
                -0.0280434,
                0.0533445,
                -0.0169678,
                -0.116798,
                -0.07206,
                0.00429455,
                0.00637439,
                -0.0710287,
                0.150783,
                -0.0532325,
                0.105183,
                0.0978404,
                0.0157775,
                -0.0903337,
                0.217244,
                -0.0139238,
                0.0122554,
                0.118627,
                -0.071607,
                0.0637864,
                0.024814,
                -0.0829242,
                0.0322809,
                -0.0207394,
                -0.0876638,
                0.067688,
                -0.0103204,
                -0.0166919,
                -0.0924367,
                0.00992845,
                0.0791958,
                -0.269476,
                -0.0750154,
                -0.00108309,
                0.0390935,
                0.000155058,
                0.116553,
                0.215877,
                0.0244137,
                -0.0911439,
                0.0248607,
                0.0579204,
                0.0210975,
                -0.129815,
                -0.0537437,
                -0.103339,
                -0.0384625,
                -0.0520449,
                -0.052986,
                0.0438266,
                -0.0453036,
                -0.0952813,
                0.0823083,
                -0.0254738,
                -0.0128078,
                0.0744433,
                0.158392,
                -0.195245,
                -0.0136767,
                0.0254058,
                0.0149917,
                -0.163924,
                0.123,
                0.037347,
                -0.149833,
                -0.128439,
                -0.00999842,
                -0.0271267,
                0.0376164,
                0.19071,
                -0.0774242,
                0.190429,
                0.147581,
                -0.0172106,
                0.0476846,
                0.084777,
                -0.121846,
                -0.0345512,
                0.113572,
                0.116913,
                -0.0254185,
                -0.0910369,
                -0.050996,
                0.0770126,
                0.0386019,
                0.0778743,
                0.00912746,
                0.111942,
                0.0211806,
                -0.048784,
                0.0244546,
                0.078126,
                -0.192547,
                0.0314069,
                0.208226,
                -0.0580076,
                0.0401034,
                -0.02145,
                -0.0297279,
                -0.0438942,
                -0.0079689,
                0.0780163,
                -0.0355358,
                0.0653446,
                0.0773337,
                -0.0199408,
                0.0511661,
                0.121431,
                -0.0143738,
                0.120223,
                -0.0072028,
                -0.0441273,
                0.00167067,
                -0.200932,
                0.101679,
                0.250036,
                -0.131916,
                0.0800482,
                0.0129161,
                0.190952,
                -0.0998103,
                -0.06072,
                0.0151244,
                0.0447481,
                0.111171,
                0.0797446,
                0.00531075,
                -0.0322474,
                0.122202,
                -0.0200964,
                0.181175,
                0.0907262,
                0.309654,
                0.0399221,
                0.114594,
                0.0211903,
                0.0749359,
                0.0265418,
                -0.0518854,
                -0.0839353,
                -0.0279565,
                0.0380816,
                0.167847,
                -0.0351343,
                0.218374,
                0.0862435,
                0.0742622,
                0.138941,
                0.0781283,
                -0.11098,
                0.0675827,
                0.0928494,
                -0.0544585,
                -0.0178643,
                -0.0408342,
                0.1665,
                -0.0486982,
                0.112714,
                0.00935257,
                -0.154914,
                -0.19859,
                0.293114,
                0.138248,
                0.0859765,
                -0.14303,
                -0.063516,
                -0.0788538,
                0.127204,
                -0.0588265,
                0.0768098,
                0.0948844,
                0.025534,
                0.159573,
                -0.0635292,
                0.0422399,
                0.0272969,
                0.0583505,
                0.163757,
                -0.0885792,
                0.084219,
                -0.119079,
                -0.144339,
                0.0668845,
                0.176374,
                -0.151859,
                0.12397,
                0.0239447,
                -0.235942,
                0.208686,
                0.128283,
                -0.0858139,
                -0.097343,
                0.0561361,
                0.0979705,
                0.0305174,
                -0.0723583,
                0.0606818,
                -0.0327277,
                -0.17401,
                -0.0680818,
                0.0712905,
                0.108385,
                -0.014542,
                -0.0601445,
                0.122324,
                -0.0745239,
                -0.243986,
                -0.0471116,
                -0.151936,
                -0.172869,
                -0.0314642,
                -0.0365543,
                -0.112061,
                -0.1021,
                0.162905,
                -0.0936346,
                -0.026242,
                0.0659491,
                -0.0133568,
                0.141239,
                0.00413221,
                -0.175172,
                -0.0587756,
                0.0599937,
                -0.0684596,
                -0.091011,
                -0.0850671,
                0.0625058,
                -0.102758,
                0.110648,
                -0.136382,
                0.151429,
                -0.13949,
                -0.0637554,
                -0.00686036,
                -0.0154411,
                -0.123261,
                -0.0149094,
                -0.0901965,
                -0.0257413,
                0.183859,
                0.0109385,
                -0.074801,
                0.0229893,
                -0.167375,
                0.077094,
                0.0924474,
                0.00970074,
                -0.0742581,
                -0.251228,
                -0.186791,
                -0.118617,
                0.0027091,
                0.142815,
                -0.186606,
                -0.246629,
                0.0503431,
                0.108003,
                0.0953913,
                0.210142,
                -0.00842805,
                -0.0172567,
                -0.12912,
                0.215902,
                0.0745658,
                0.0557953,
                -0.111463,
                -0.108903,
                -0.00227748,
                0.0551381,
                -0.0342095,
                -0.00975632,
                -0.038643,
                0.00326753,
                0.125035,
                0.0718546,
                0.148286,
                0.104952,
                -0.0683259,
                0.105485,
                0.0932464,
                0.0600376,
                -0.0551203,
                -0.121366,
                0.0464517,
                0.0830234,
                -0.0910234,
                0.131289,
                -0.136386,
                -0.0086526,
                -0.117012,
                0.148472,
                0.0502401,
                -0.0369268,
                -0.0690977,
                0.102931,
                0.0307775,
                -0.078762,
                -0.128466,
                -0.019486,
                -0.119888,
                0.0605694,
                0.177376,
                0.0194329,
                0.0607866,
                -0.0479178,
                0.108241,
                -0.0627474,
                0.0894386,
                -0.0998781,
                0.0987068,
                0.0070345,
                0.014525,
                0.0119281,
                0.176679,
                0.0850918,
                -0.107487,
                -0.0877146,
                -0.102964,
                0.0248029,
                0.130425,
                0.0617795,
                -0.00255359,
                0.0609539,
                0.0269086,
                0.0606887,
                0.00199642,
                -0.183392,
                -0.0852318,
                0.107897,
                -0.121351,
                0.163457,
                0.0458348,
                0.0604688,
                -0.16811,
                0.126169,
                0.111616,
                -0.0424714,
                -0.0240809,
                0.131785,
                -0.00483284,
                0.094937,
                0.016496,
                0.0807667,
                -0.0217108,
                -0.0835562,
                -0.119197,
                -0.121321,
                0.0304496,
                -0.0621581,
                0.0740559,
                -0.0946704,
                -0.138751,
                0.00982993,
                -0.0550185,
                -0.147342,
                0.0665619,
                -0.0113459,
                0.027247,
                0.0716847,
                -0.0937149,
                0.146554,
                0.141092,
                0.0446918,
                0.0515316,
                -0.0780734,
                -0.0692343,
                0.0879006,
                0.0769314,
                -0.0344825,
                -0.114983,
                0.0553531,
                -0.206735,
                -0.111896,
                0.0996702,
                0.0309249,
                0.0211594,
                0.0772676,
                -0.171335,
                -0.084166,
                0.103659,
                0.162876,
                -0.183747,
                -0.00823829,
                -0.100135,
                -0.0797566,
                0.0549796,
                -0.144868,
                0.0123293,
                -0.174822,
                -0.141298,
                -0.0407927,
                -0.0271914,
                -0.0246295,
                0.0215299,
                -0.123441,
                -0.117308,
                0.0536662,
                0.0898589,
                -0.0236259,
                0.0981911,
                -0.0151066,
                0.131025,
                0.123547,
                0.106392,
                0.0981243,
                -0.055995,
                -0.0992963,
                0.0396689,
                0.0105617,
                0.0181751,
                0.059929,
                -0.148383,
                0.0724741,
                -0.0909211,
                -0.0727969,
                -0.0762358,
                -0.0639094,
                -0.0103542,
                -0.00414641,
                0.0539538,
                0.101833,
                -0.22935,
                -0.0274946,
                0.0635326,
                -0.0271676,
                -0.0265654,
                0.00163412,
                0.165644,
                -0.00811593,
                0.0488952,
                0.025034,
                0.0905611,
                0.0361709,
                0.0222732,
                -0.054123,
                -0.0624911,
                -0.0941439,
                0.0933231,
                0.0158846,
                -0.103858,
                -0.0406013,
                0.00280899,
                -0.163615,
                0.00440315,
                -0.0224353,
                0.0987105,
                0.0200596,
                -0.0829405,
                -0.0197286,
                0.0205036,
                0.196505,
                -0.111743,
                0.0639181,
                0.145229,
                0.005884,
                -0.0934908,
                0.0204029,
                -0.14051,
                -0.160077,
                0.0568728,
                -0.0446984,
                -0.0563124,
                -0.213114,
                -0.0733029,
                -0.0952299,
                -0.0225249,
                -0.0314876,
                -0.0354114,
                0.108106,
                -0.00567205,
                -0.285347,
                0.135572,
                -0.104578,
                -0.0154554,
                0.0651941,
                0.172626,
                0.0700838,
                -0.0200152,
                0.0428224,
                0.0194548,
                -0.074203,
                -0.165633,
                0.0344265,
                0.101398,
                -0.0220474,
                -0.279409,
                0.0392649,
                0.17215,
                0.0976868,
                -0.0389691,
                -0.0219235,
                -0.104426,
                0.0264213,
                -0.0700829,
                0.150766,
                0.0718707,
                -0.0158159,
                -0.0411503,
                -0.14145,
                0.0493503,
                0.131346,
                -0.0487717,
                0.0440673,
                -0.058945,
                -0.099713,
                -0.0947025,
                0.0614113,
                0.0840394,
                -0.0653646,
                0.115017,
                -0.00872697,
                -0.1258,
                -0.00967913,
                0.104658,
                0.0516528,
                -0.132734,
                -0.151122,
                0.0359756,
                -0.0253712,
                0.174029,
                0.0115442,
                0.0297589,
                0.137811,
                -0.0186143,
                0.0193968,
                -0.0333584,
                -0.0634579,
                -0.120904,
                -0.00654459,
                -0.0716483,
                -0.0954097,
                0.0807492,
                -0.0207523,
                0.241297,
                0.139217,
                -0.058827,
                -0.0182193,
                -0.0914204,
                0.124964,
                0.145331,
                0.000717755,
                -0.16463,
                -0.00590874,
                0.0628496,
                -0.116816,
                -0.173094,
                0.123954,
                0.0488726,
                0.0104522,
                -0.158946,
                -0.186419,
                -0.179917,
                -0.20776,
                -0.0726111,
                0.150371,
                0.0709938,
                -0.0554515,
                0.0728561,
                -0.0858621,
                0.123043,
                0.106766,
                -0.151556,
                -0.0371737,
                -0.0925693,
                -0.131545,
                -0.00875933,
                -0.110843,
                -0.054908,
                -0.0753933,
                -0.208165,
                -0.0255282,
                0.141504,
                -0.0134698,
                -0.18246,
                -0.102289,
                0.0513246,
                0.0417771,
                -0.141198,
                -0.137021,
                0.149177,
                -0.0722051,
                0.148786,
                -0.0863424,
                -0.037807,
                0.198315,
                -0.0722739,
                -0.0168021,
                0.0821877,
                0.05255,
                0.0190469,
                -0.0064552,
                0.0991469,
                -0.0898585,
                0.00189609,
                0.0167301,
                -0.109733,
                -0.0264051,
                0.0714301,
                -0.0303755,
                -0.0889117,
                -0.0603186,
                -0.042019,
                -0.00993371,
                0.0391599,
                0.0514164,
                -0.127057,
                -0.119169,
                0.0608934,
                0.0250065,
                0.125797,
                -0.067362,
                -0.00993873,
                0.0877772,
                0.025494,
                -0.0975085,
                -0.0305454,
                0.0302313,
                0.0777583,
                0.220591,
                0.0448024,
                0.171724,
                0.170568,
                0.0783209,
                -0.151026,
                0.049211,
                0.0283783,
                0.0879023,
                0.0428767,
                -0.0954963,
                -0.190999,
                -0.207935,
                0.160424,
                -0.000944722,
                -0.0148286,
                0.0234357,
                0.0916405,
                -0.0529453,
                0.110474,
                -0.0333086,
                0.0673167,
                0.0418263,
                -0.0495232,
                -0.0997819,
                0.0290583,
                -0.0197118,
                0.104938,
                0.0133061,
                0.0286007,
                0.116877,
                0.0930389,
                0.00754751,
                -0.275985,
                -0.122573,
                -0.039433,
                0.0373545,
                0.0707668,
                0.10465,
                0.0542375,
                -0.0438866,
                0.0265233,
                -0.105048,
                -0.0546324,
                0.105246,
                -0.0613794,
                -0.0638013,
                0.0375511,
                0.0509972,
                -0.0713107,
                0.00943791,
                0.126096,
                -0.0258625,
                -0.0360996,
                0.0295876,
                -0.055903,
                0.0265985,
                0.0378314,
                -0.0927995,
                0.0913842,
                0.0128241,
                0.0444498,
                0.0780288,
                -0.0581544,
                -0.0390955,
                0.0840183,
                0.23555,
                0.0313048,
                0.114372,
                0.0282542,
                0.0978505,
                0.131093,
                -0.0311944,
                -0.0420475,
                -0.261174,
                0.109247,
                0.0544413,
                -0.0868993,
                -0.277168,
                0.0113679,
                -0.10399,
                -0.00591601,
                -0.11374,
                0.117535,
                0.0845102,
                0.10617,
                -0.0810724,
                -0.125053,
                0.0274722,
                -0.131806,
                0.0459814,
                -0.0852731,
                -0.119346,
                0.202026,
                -0.02192,
                -0.0145013,
                -0.039398,
                -0.0541248,
                0.215979,
                -0.00347008,
                -0.0596738,
                -0.136528,
                -0.0508046,
                -0.00948689,
                0.162778,
                -0.0814436,
                -0.0652891,
                -0.0582204,
                0.0282617,
                0.149386,
                -0.150733,
                0.0656031,
                0.242604,
                -0.134563,
                0.120605,
                -0.225684,
                -0.0652071,
                0.0507587,
                -0.0638393,
                0.133627,
                -0.0160634,
                -0.139029,
                0.0382463,
                0.132135,
                0.270806,
                0.0327932,
                0.0238893,
                -0.0950199,
                -0.045208,
                0.0127342,
                -0.0601054,
                0.056561,
                -0.10209,
                -0.0368732,
                0.179958,
                -0.0570493,
                -0.0339072,
                0.187504,
                0.0909608,
                -0.059845,
                -0.115596,
                0.085326,
                0.105149,
                -0.0323553,
                -0.153324,
                -0.152138,
                -0.105802,
                -0.012563,
                -0.0485203,
                -0.0251553,
                0.0523537,
                -0.146694,
                0.0705089,
                0.0483842,
                -0.0211855,
                -0.0968521,
                0.295705,
                0.0186858,
                0.111935,
                -0.0785109,
                0.158983,
                0.0234882,
                -0.117488,
                0.0635365,
                0.00137584,
                -0.0695752,
                -0.0716139,
                -0.00833937,
                -0.0436277,
                -0.0557675,
                -0.145376,
                0.0643711,
                0.0273656,
                -0.0457514,
                -0.0551547,
                0.0298633,
                -0.03831,
                0.276908,
                -0.0149178,
                -0.0273203,
                -0.197778,
                0.00530799,
                -0.0818871,
                0.0354848,
                0.0535844,
                0.07637,
                0.0370987,
                0.0919117,
                -0.0443814,
                0.100682,
                0.018573,
                -0.0745278,
                0.0430699,
                -0.0125338,
                -0.059551,
                -0.0887351,
                -0.0111832,
                -0.0171548,
                0.00847229,
                0.0838744,
                -0.0485096,
                -0.0220526,
                0.010753,
                -0.044637,
                0.00754952,
                0.152935,
                -0.0742981,
                0.0433031,
                0.0542447,
                0.0819081,
                0.217381,
                -0.0995766,
                0.0266039,
                -0.000712261,
                -0.02229,
                -0.107899,
                0.0359004,
                -0.0551399,
                -0.0136031,
                0.0741274,
                0.17292,
                0.0613233,
                0.10513,
                0.0239447,
                0.0468403,
                0.0569172,
                -0.22141,
                -0.0833392,
                0.0266404,
                -0.185556,
                -0.0130416,
                0.000803451,
                0.0352284,
                -0.0368294,
                -0.124054,
                0.0207554,
                -0.00884143,
                0.128394,
                0.0744299,
                -0.0412794,
                0.0176586,
                -0.125764,
                -0.0976177,
                0.108932,
                0.0621518,
                0.0369645,
                0.104903,
                0.174234,
                0.177649,
                -0.0829653,
                0.068231,
                -0.0437179,
                -0.182613,
                0.0295671,
                0.0239954,
                0.0657152,
                -0.070204,
                0.0745558,
                -0.0357404,
                0.0225963,
                0.177135,
                0.0375049,
                -0.164859,
                -0.0225974,
                0.0709436,
                0.0760216,
                0.0839619,
                -0.0315716,
                0.0587849,
                -0.0807957,
                -0.137702,
                0.0856612,
                -0.0787941,
                -0.116846,
                0.0963941,
                -0.199379,
                -0.0712965,
                -0.0563872,
                -0.18976,
                -0.0271433,
                0.0579536,
                -0.215104,
                0.0608216,
                0.0725968,
                -0.0155611,
                -0.000786538,
                0.0804293,
                -0.0931161,
                0.0152659,
                -0.0159753,
                0.0721681,
                0.121795,
                -0.0315581,
                -0.253252,
                0.317837,
                -0.162863,
                0.0464474,
                -0.0247627,
                0.0435279,
                -0.0964372,
                0.0507323,
                0.0291432,
                0.0243021,
                0.0370004,
                0.0483266,
                0.0474588,
                0.0411893,
                0.106974,
                0.168303,
                -0.067858,
                0.0199794,
                0.0071465,
                0.051209,
                0.0976581,
                -0.035541,
                0.295386,
                0.0963158,
                0.0257308,
                -0.0471604,
                -0.0824608,
                -0.0410979,
                -0.00102877,
                -0.0494195,
                0.0636519,
                0.0291135,
                0.020881,
                0.0504157,
                -0.0148588,
                0.101142,
                0.10139,
                0.17788,
                0.0624599,
                0.0774853,
                0.0251634,
                0.147899,
                0.0916885,
                0.148744,
                0.175749,
                0.0349076,
                0.247365,
                -0.148583,
                0.0237229,
                0.101954,
                0.106709,
                0.103201,
                0.0449325,
                0.118837,
                -0.0527661,
                -0.139066,
                0.0859811,
                -0.0487855,
                -0.11481,
                -0.0503888,
                -0.201778,
                0.193812,
                -0.0213405,
                -0.222877,
                -0.0381186,
                -0.0638656,
                -0.0573695,
                -0.0257019,
                0.0904286,
                0.0495639,
                -0.0751611,
                -0.0255447,
                -0.216489,
                -0.169234,
                -0.0777108,
                0.00542975,
                0.06292,
                0.0891422,
                -0.144007,
                0.00163676,
                0.0319252,
                -0.0166244,
                -0.126893,
                -0.0833116,
                -0.0777533,
                -0.0219104,
                0.134232,
                -0.085184,
                -0.0376086,
                0.00730295,
                -0.0539873,
                0.253216,
                -0.0768702,
                -0.158884,
                -0.101448,
                -0.0481662,
                0.127348,
                -0.0344238,
                -0.150274,
                -0.0527169,
                -0.0499256,
                -0.0855196,
                -0.118643,
                0.0359779,
                -0.050147,
                0.106429,
                0.0667463,
                0.0704289,
                0.101848,
                0.0119869,
                0.0334965,
                0.0717992,
                -0.0363231,
                0.161246,
                -0.0303828,
                0.18561,
                -0.0276149,
                0.0516977,
                0.0715265,
                0.0340849,
                0.00159637,
                0.121636,
                0.00701498,
                -0.128062,
                0.0483181,
                0.12957,
                -0.153392,
                -0.147571,
                0.0620253,
                -0.199547,
                -0.00634925,
                0.0781889,
                0.0629174,
                -0.100064,
                0.110663,
                -0.0055595,
                0.0648931,
                0.0997967,
                -0.0481636,
                -0.142108,
                -0.0863933,
                -0.210122,
                -0.0777741,
                0.119412,
                0.0272012,
                -0.12966,
                0.164278,
                0.105756,
                -0.0169236,
                -0.0728511,
                -0.027667,
                -0.0462048,
                0.0489887,
                0.211052,
                -0.0592304,
                0.16671,
                0.0343588,
                0.0592272,
                -0.0283562,
                -0.0960567,
                -0.0475687,
                -0.0360522,
                0.190086,
                -0.00321234,
                -0.0644476,
                0.0470517,
                0.0216193,
                -0.033876,
                0.0752114,
                -0.0469585,
                -0.055021,
                0.0637715,
                -0.178278,
                -0.0104787,
                -0.160306,
                0.0578333,
                -0.0460623,
                -0.0260563,
                -0.0173054,
                -0.0846666,
                -0.0509699,
                -0.00415244,
                0.11437,
                0.137073,
                -0.0395729,
                -0.0047855,
                -0.0687053,
                -0.199436,
                0.261671,
                -0.0558682,
                -0.0191697,
                -0.10041,
                0.0126514,
                0.000161566,
                -0.0584322,
                -0.142069,
                -0.00938779,
                -0.0868337,
                0.216986,
                0.0305141,
                -0.140449,
                0.0705394,
                0.0103015,
                0.0611606,
                0.179374,
                -0.00587869,
                -0.1171,
                0.168698,
                0.0866444,
                -0.00602048,
                -0.0674519,
                -0.0946071,
                -0.148511,
                -0.258342,
                0.0915387,
                0.0605911,
                0.0800557,
                0.117891,
                -0.0594837,
                -0.0118439,
                -0.0237909,
                0.0276897,
                0.0273385,
                0.13584,
                0.122396,
                0.0472021,
                -0.117214,
                0.071566,
                0.022397,
                -0.0551292,
                0.241937,
                -0.114649,
                -0.000873967,
                -0.175055,
                -0.0303491,
                -0.037456,
                -0.00190928,
                0.132029,
                -0.0851857,
                -0.08824,
                0.0832138,
                0.122641,
                -0.0425388,
                0.156606,
                0.0487122,
                -0.110128,
                -0.0156739,
                -0.0919141,
                0.152327,
                -0.0277489,
                0.0305357,
                -0.0832971,
                0.122683,
                0.0366586,
                0.106257,
                -0.0693358,
                0.0662576,
                -0.13209,
                0.103897,
                0.0711814,
                0.00690155,
                0.102135,
                -0.0147167,
                0.0830129,
                0.0456865,
                0.0559244,
                -0.0469271,
                -0.207409,
                -0.108629,
                -0.231938,
                -0.0933874,
                -0.0673368,
                -0.0502748,
                0.121162,
                0.000463782,
                0.0114333,
                -0.036858,
                0.107028,
                0.0503207,
                -0.0477543,
                -0.0088087,
                0.173066,
                0.139062,
                0.0600718,
                -0.0129888,
                0.107927,
                -0.000400943,
                0.0564103,
                -0.0534945,
                -0.0574223,
                -0.244274,
                0.0403351,
                -0.205763,
                0.10505,
                -0.163907,
                0.0420591,
                0.0612222,
                -0.0620621,
                -0.0447945,
                -0.034351,
                0.0690741,
                -0.101763,
                -0.192626,
                -0.0122568,
                -0.057798,
                -0.0596886,
                0.0592105,
                -0.00610253,
                -0.136458,
                0.0438874,
                -0.103428,
                0.0107171,
                -0.00163121,
                0.0851309,
                0.0749545,
                -0.102737,
                0.0835398,
                -0.0862279,
                0.0515541,
                -0.137062,
                0.00875258,
                -0.0282962,
                0.107164,
                0.0958983,
                -0.125932,
                -0.0334185,
                -0.0376633,
                0.0122631,
                0.0394464,
                -0.0650867,
                -0.0863229,
                -0.0739587,
                0.0290097,
                0.065257,
                0.0467214,
                0.185642,
                0.0245341,
                -0.0931771,
                0.0441263,
                -5.83648e-05,
                0.0360611,
                -0.238441,
                0.0323874,
                0.0784742,
                0.0626749,
                0.0934853,
                0.027703,
                0.088121,
                -0.00693194,
                0.00182635,
                -0.0454888,
                -0.115386,
                0.129524,
                -0.019756,
                -0.010218,
                -0.0579448,
                -0.0191948,
                0.116795,
                -0.0017681,
                0.0249119,
                -0.00648213,
                0.146916,
                0.126078,
                -0.0637542,
                -0.147421,
                0.00290164,
                0.0108787,
                -0.12717,
                -0.157523,
                0.150337,
                -0.0181865,
                0.0845242,
                0.0901612,
                0.214443,
                0.0743167,
                -0.107175,
                -0.0964122,
                -0.0437603,
                0.0406725,
                0.074948,
                0.1532,
                -0.180171,
                0.130571,
                0.0244396,
                -0.160563,
                -0.236847,
                0.00735653,
                -0.0131303,
                0.166701,
                -0.025103,
                0.163177,
                0.0952625,
                -0.123558,
                0.0637868,
                -0.0185649,
                0.203594,
                -0.0317244,
                0.0414321,
                -0.161946,
                0.116112,
                0.080269,
                0.0475146,
                0.0328855,
                0.121814,
                -0.0870906,
                0.0651671,
                -0.0646746,
                0.207608,
                -0.0105034,
                0.0012219,
                0.0967498,
                0.0743484,
                0.0477866,
                0.102075,
                -0.0230785,
                -0.0779246,
                0.143048,
                -0.0488298,
                0.0649783,
                0.0692294,
                0.0668611,
                -0.129586,
                -0.00460571,
                -0.103602,
                -0.0341928,
                0.0334552,
                0.115642,
                -0.087849,
                -0.0520634,
                0.0374184,
                -0.119315,
                0.0299374,
                0.156193,
                0.104439,
                -0.027774,
                0.0561417,
                0.0956026,
                0.150599,
                0.0178825,
                -0.0104203,
                -0.0647046,
                0.159709,
                0.076342,
                -0.154388,
                0.0374618,
                0.113548,
                0.0622518,
                0.0226894,
                -0.114387,
                -0.0834972,
                0.00836515,
                0.174825,
                -0.0730802,
                0.0599486,
                0.00824012,
                0.0996192,
                -0.0817611,
                -0.0375212,
                -0.0395401,
                0.00196845,
                -0.0153848,
                0.0189913,
                0.0223119,
                -0.0625053,
                -0.029306,
                -0.0666601,
                -0.263824,
                -0.0270728,
                0.00249558,
                -0.0798558,
                0.121779,
                -0.00376947,
                0.0243966,
                -0.141364,
                -0.185905,
                -0.0603559,
                -0.0211267,
                -0.0194833,
                -0.073342,
                -0.167377,
                0.0987647,
                0.0749687,
                -0.077433,
                0.150078,
                0.00101213,
