{
    "layers": [
        {
            "name": "input",
            "type": "input",
            "size": 196
        },
        {
            "name": "blstm_level_0",
            "type": "blstm",
            "size": 40,
            "bias": 1
        },
        {
            "name": "blstm_level_1",
            "type": "blstm",
            "size": 30,
            "bias": 1
        },
        {
            "name": "output",
            "type": "feedforward_identity",
            "size": 1,
            "bias": 1
        },
        {
            "name": "postoutput",
            "type": "sse",
            "size": 1
        }
    ],
    "weights": {
        "blstm_level_0": {
            "input": [
                -0.126803,
                0.0667243,
                -0.0480466,
                0.0407122,
                0.223488,
                -0.0955482,
                0.0185343,
                -0.0324476,
                -0.16003,
                -0.0194217,
                -0.00408461,
                0.098201,
                0.00969911,
                -0.0761386,
                -0.0729034,
                -0.104873,
                -0.204805,
                0.0710555,
                0.0430365,
                0.02011,
                0.103042,
                0.071198,
                0.124811,
                0.0417673,
                -0.0284635,
                0.0777191,
                -0.0130218,
                0.0189452,
                0.0527117,
                0.0602646,
                0.0838818,
                0.0999845,
                0.00264022,
                0.114596,
                -0.104218,
                -0.00856455,
                0.0284145,
                0.0942974,
                0.0240355,
                -0.000710732,
                0.201639,
                0.0437962,
                -0.115255,
                -0.0834238,
                -0.0900581,
                0.0605325,
                -0.061056,
                0.149838,
                -0.0614434,
                0.104144,
                -0.091792,
                0.0595924,
                0.0115788,
                0.107424,
                -0.103191,
                -0.0117942,
                -0.111939,
                -0.092618,
                0.00984241,
                0.066812,
                0.0214493,
                0.105138,
                -0.0827586,
                0.190537,
                -0.000637986,
                0.083156,
                0.127618,
                0.00326049,
                -0.0284152,
                0.0473672,
                0.174704,
                -0.0339172,
                -0.0964385,
                -0.0754371,
                -0.235898,
                -0.0389102,
                0.0684292,
                -0.0417677,
                0.186555,
                0.0307643,
                0.0629511,
                0.19487,
                0.0304143,
                -0.183545,
                0.0506061,
                0.0544224,
                0.201448,
                -0.0216484,
                -0.141387,
                -0.120887,
                -0.0670892,
                -0.0559527,
                -0.0801611,
                -0.155199,
                0.112546,
                0.1818,
                0.0659475,
                -0.0341537,
                -0.0788784,
                -0.0454181,
                -0.0880515,
                0.00485527,
                0.141641,
                -0.0619817,
                0.06418,
                -0.0240398,
                -0.0645035,
                -0.0187312,
                -0.206133,
                0.0376611,
                -0.0379913,
                -0.231722,
                -0.13153,
                0.0521753,
                -0.0667566,
                -0.00333851,
                -0.08621,
                -0.099516,
                0.155138,
                0.00432652,
                -0.026554,
                -0.0738712,
                -0.0320204,
                -0.0804057,
                0.0392021,
                0.0258969,
                -0.163877,
                -0.00514074,
                0.111547,
                -0.00821303,
                0.0480553,
                -0.0285715,
                0.057517,
                -0.200228,
                0.0409665,
                -0.0687521,
                0.0867046,
                0.273161,
                0.0102798,
                0.106949,
                -0.0748344,
                -0.0164394,
                -0.0398187,
                0.0748126,
                -0.0694096,
                0.021487,
                -0.0611127,
                -0.0492868,
                -0.0688527,
                0.0459103,
                0.0304541,
                -0.0802978,
                -0.0102388,
                -0.00722924,
                0.084866,
                0.0163509,
                0.0711375,
                -0.0372077,
                -0.0702563,
                -0.0148269,
                0.15478,
                -0.0261924,
                -0.00770791,
                0.214242,
                0.00644688,
                0.037757,
                0.145645,
                -0.148614,
                -0.106648,
                -0.142733,
                0.12712,
                0.164017,
                -0.0308506,
                -0.0896796,
                -0.153048,
                -0.0583736,
                -0.0596371,
                0.03271,
                0.171912,
                -0.0959018,
                0.0776495,
                0.0586122,
                -0.0164215,
                0.0210148,
                -0.0130152,
                0.154905,
                -0.0600678,
                -0.00861952,
                0.0458376,
                -0.0118295,
                0.0791471,
                0.100413,
                -0.0930848,
                0.027334,
                -0.089576,
                0.0324288,
                -0.0567553,
                0.186783,
                0.0600135,
                -0.0491728,
                0.128635,
                0.179085,
                -0.0552251,
                -0.211621,
                0.155903,
                0.0535904,
                -0.0803226,
                -0.0560837,
                -0.120166,
                -0.271174,
                -0.0543713,
                0.0640484,
                0.151737,
                -0.0188052,
                -0.0165011,
                0.00544474,
                0.0567165,
                -0.0497875,
                -0.169042,
                -0.0575632,
                -0.217226,
                0.0222462,
                0.00956335,
                0.124793,
                -0.097967,
                0.101786,
                -0.0555,
                -0.0487467,
                -0.0298979,
                -0.00270649,
                0.200349,
                0.209073,
                0.0499486,
                0.085484,
                -0.0916285,
                -0.209233,
                -0.0226482,
                0.235108,
                -0.15412,
                -0.00511042,
                -0.088514,
                0.139288,
                0.0535463,
                -0.0191757,
                -0.187055,
                0.047668,
                -0.0653269,
                -0.0653585,
                -0.0549593,
                -0.119853,
                -0.0695704,
                -0.142581,
                -0.00201146,
                0.159083,
                0.147831,
                -0.0191648,
                -0.0579375,
                0.181302,
                0.0387354,
                0.144594,
                -0.134397,
                0.183211,
                0.00233659,
                0.035382,
                -0.0722974,
                -0.231527,
                0.0102541,
                0.00453852,
                -0.180095,
                0.233997,
                -0.118151,
                -0.0650588,
                -0.123128,
                -0.0100611,
                -0.12323,
                -0.0647678,
                -0.0210827,
                0.0159293,
                0.066164,
                0.0900672,
                -0.0450907,
                -0.0262172,
                0.0988904,
                0.114303,
                -0.0355746,
                -0.0919685,
                0.185351,
                0.0476455,
                0.0700203,
                0.105582,
                -0.0125409,
                -0.0933385,
                -0.101923,
                -0.0799139,
                0.00329249,
                0.150464,
                0.019355,
                0.115915,
                -0.0286173,
                0.0111674,
                0.0329461,
                -0.0638832,
                -0.0972019,
                0.112876,
                -0.129846,
                0.151346,
                -0.00167132,
                0.0656396,
                -0.100705,
                0.0175898,
                -0.00252223,
                -0.119617,
                0.0626989,
                0.0116884,
                -0.152407,
                0.0909944,
                -0.137333,
                0.100085,
                0.061237,
                -0.0113223,
                -0.0534322,
                0.0357188,
                0.0357829,
                0.125963,
                -0.0435536,
                -0.142199,
                0.0178995,
                -0.00101696,
                -0.0672417,
                -0.0631579,
                -0.186028,
                -0.106614,
                -0.0223401,
                0.0670712,
                -0.0793153,
                0.120687,
                0.100937,
                0.213969,
                0.162656,
                -0.0179245,
                -0.0923945,
                0.0145111,
                0.123973,
                0.0916512,
                -0.0306698,
                0.18439,
                -0.20445,
                0.0795819,
                0.0223695,
                -0.0429818,
                0.0309445,
                -0.154175,
                0.0834888,
                -0.112101,
                0.224115,
                0.08284,
                -0.120984,
                0.0949577,
                -0.162645,
                0.080155,
                0.0378801,
                0.0264307,
                0.209685,
                -0.158936,
                -0.0795099,
                -0.247197,
                0.0777691,
                0.0787805,
                0.0468073,
                0.0549473,
                -0.0344107,
                -0.0965989,
                -0.0681578,
                -0.132788,
                -0.0256794,
                0.0761502,
                -0.03543,
                0.00411269,
                -0.0458168,
                -0.0365557,
                0.162986,
                0.0785243,
                0.0920627,
                0.031209,
                -0.154812,
                -0.147404,
                -0.032239,
                -0.18885,
                -0.0234569,
                -0.0362499,
                0.030849,
                0.118328,
                0.112418,
                -0.0345221,
                -0.160437,
                -0.120385,
                0.0643001,
                0.0712253,
                -0.146518,
                -0.0693152,
                0.1046,
                -0.20314,
                0.0241904,
                -0.0449479,
                0.0910631,
                0.0283008,
                0.154735,
                -0.0354445,
                0.0396474,
                -0.119992,
                0.0287441,
                -0.0066024,
                0.198359,
                -0.062858,
                -0.0422231,
                0.0673005,
                -0.0488063,
                -0.0251184,
                0.078065,
                -0.231761,
                -0.108538,
                -0.244892,
                0.00785738,
                0.0803925,
                0.031214,
                0.0856479,
                0.0354168,
                -0.0783206,
                -0.0101466,
                -0.10111,
                0.00509739,
                0.0788757,
                -0.0540966,
                -0.0688147,
                -0.0179016,
                0.137325,
                0.199964,
                0.0854549,
                0.029651,
                0.00473455,
                0.00371256,
                -0.145998,
                -0.0861501,
                -0.0353553,
                -0.108013,
                -0.0818888,
                -0.0163415,
                0.0853249,
                -0.0723203,
                -0.104013,
                0.0523894,
                0.229798,
                0.0971221,
                -0.0519655,
                0.00182324,
                0.0716671,
                0.0907141,
                -0.0173502,
                0.0148731,
                -0.086704,
                -0.0193856,
                -0.0615557,
                0.0394517,
                0.0103049,
                -0.103927,
                0.0981918,
                0.00436748,
                0.175924,
                -0.159555,
                -0.189665,
                0.0749142,
                -0.0524557,
                0.0251736,
                0.0163633,
                -0.0551989,
                0.147019,
                0.0592059,
                -0.0531295,
                0.0312182,
                0.10907,
                0.119912,
                -0.194141,
                -0.0747874,
                -0.0858547,
                0.0236343,
                -0.0346677,
                0.0068322,
                0.055871,
                -0.000421727,
                0.0906593,
                0.0348854,
                -0.122819,
                0.03791,
                -0.0523701,
                -0.204236,
                0.0125645,
                0.0303815,
                0.134336,
                0.107209,
                0.0625396,
                -0.0491346,
                -0.0383546,
                -0.0545695,
                0.027325,
                0.0922002,
                -0.0705577,
                0.0213736,
                0.0460425,
                0.00591965,
                0.0827191,
                0.114104,
                0.0259963,
                -0.0790232,
                0.0958493,
                0.053515,
                -0.0753492,
                0.221226,
                0.044282,
                -0.0267307,
                -0.16074,
                0.110382,
                0.137553,
                -0.0794517,
                0.0407757,
                0.032483,
                -0.211706,
                0.148122,
                -0.000612491,
                -0.0426793,
                -0.0290694,
                0.0548735,
                -0.206461,
                -0.053517,
                -0.0561201,
                0.0286577,
                0.064652,
                -0.209501,
                -0.00766754,
                0.133294,
                0.00117867,
                -0.184127,
                0.058218,
                -0.0830339,
                -0.0493008,
                -0.00798825,
                0.0363805,
                -0.0752311,
                -0.00336205,
                -0.117295,
                0.117616,
                0.0902608,
                -0.116004,
                -0.0897211,
                0.202823,
                -0.0352145,
                0.0387193,
                0.109824,
                -0.139538,
                -0.0530074,
                -0.16376,
                -0.00972666,
                0.0187623,
                0.0319058,
                -0.0075913,
                0.0580561,
                -0.0351617,
                0.0075715,
                -0.0725272,
                0.0695117,
                -0.0602932,
                0.00173431,
                -0.153763,
                0.0793422,
                0.042193,
                0.220775,
                -0.0281084,
                -0.0816407,
                -0.00833466,
                0.0449872,
                -0.0545682,
                0.0718525,
                0.0288063,
                -0.0140166,
                0.0838554,
                0.0553658,
                -0.0734642,
                0.0464453,
                0.0382723,
                -0.0426043,
                0.0057819,
                0.0610667,
                -0.035344,
                0.0683385,
                0.0753457,
                -0.182995,
                0.00640908,
                -0.0980828,
                -0.100753,
                -0.146216,
                -0.187158,
                -0.114965,
                0.0670841,
                -0.140087,
                -0.0211514,
                -0.186442,
                0.0131953,
                -0.039017,
                0.0561571,
                0.0296487,
                0.0922106,
                -0.220029,
                0.0458441,
                -0.089525,
                0.150952,
                0.0260936,
                -0.129181,
                -0.0385675,
                0.0631162,
                0.0622275,
                0.0779665,
                -0.202124,
                -0.123342,
                0.0433615,
                0.178475,
                -0.0802402,
                0.0202475,
                0.111755,
                -0.00981889,
                0.212817,
                -0.0970478,
                0.127843,
                0.14488,
                0.0652524,
                -0.0839985,
                -0.0411745,
                -0.230164,
                0.0277428,
                0.111535,
                -0.0963771,
                -0.0970745,
                0.0258395,
                -0.185047,
                -0.219172,
                0.108239,
                0.00613575,
                0.221602,
                0.0523128,
                0.0627881,
                0.147665,
                0.036226,
                0.132433,
                0.0502887,
                0.037616,
                0.148807,
                -0.0743114,
                0.0663274,
                -0.0787741,
                -0.218415,
                -0.032394,
                0.0208073,
                -0.124295,
                0.188384,
                0.0111483,
                -0.00724108,
                -0.0590753,
                0.0755338,
                -0.0975878,
                -0.224326,
                -0.035949,
                0.143698,
                -0.146732,
                -0.146579,
                -0.117111,
                0.0773968,
                -0.051323,
                -0.0662971,
                0.0729387,
                0.151621,
                -0.172805,
                -0.0555792,
                -0.0422107,
                -0.00323795,
                0.122491,
                -0.0394605,
                -0.0702728,
                -0.120948,
                -0.159826,
                -0.202037,
                -0.129047,
                -0.172577,
                -0.0532253,
                -0.0159125,
                0.00353851,
                0.0283165,
                0.0543722,
                -0.00860203,
                0.0491783,
                0.0472606,
                -0.00518818,
                0.0186039,
                -0.134194,
                0.161103,
                -0.0625128,
                0.0363355,
                -0.0680905,
                -0.289939,
                -0.104799,
                -0.0717007,
                0.0856282,
                -0.185872,
                0.112441,
                -0.135202,
                2.03066e-05,
                -0.00471423,
                0.00212744,
                -0.054828,
                -0.0554579,
                -0.0865211,
                0.0903172,
                -0.0783944,
                -0.162603,
                0.128128,
                0.00175976,
                0.113696,
                0.200818,
                0.0613834,
                0.0748533,
                0.0694666,
                -0.0613464,
                0.294423,
                -0.0829217,
                -0.125864,
                -0.135178,
                0.0153416,
                -0.101462,
                -0.155786,
                -0.224283,
                -0.0992945,
                0.247853,
                -0.0584267,
                0.0990838,
                0.0314324,
                -0.0258093,
                0.0180445,
                -0.0660946,
                -0.158613,
                -0.0408323,
                -0.0342643,
                -0.148724,
                -0.0442044,
                -0.0887235,
                0.0641046,
                -0.00315424,
                0.0377243,
                0.0470883,
                0.0022935,
                -0.0935722,
                -0.042797,
                0.0362224,
                -0.0730607,
                0.0724713,
                -0.108041,
                -0.123309,
                -0.0224615,
                0.0443108,
                -0.0513276,
                0.031566,
                0.0559299,
                0.042294,
                -0.109835,
                -0.0798358,
                -0.102867,
                0.192859,
                -0.145337,
                -0.111503,
                0.0669701,
                0.20838,
                0.0295691,
                -0.122843,
                -0.0107277,
                -0.0156211,
                0.137246,
                -0.0885025,
                -0.128961,
                0.0365914,
                0.00373476,
                0.0423023,
                -0.0408681,
                -0.0566228,
                -0.148806,
                0.0449219,
                -0.0837801,
                -0.131692,
                -0.0394179,
                0.0443575,
                -0.0728313,
                0.18153,
                -0.00102616,
                0.0222991,
                -0.0431096,
                -0.00437085,
                -0.0135239,
                -0.140993,
                0.197115,
                0.0788537,
                0.0189569,
                -0.0543713,
                0.0600498,
                0.114607,
                0.107604,
                -0.0674864,
                0.0148198,
                -0.012417,
                -0.0308951,
                -0.0105611,
                -0.064978,
                -0.0127288,
                0.232617,
                0.108148,
                0.011353,
                -0.121945,
                -0.0511121,
                0.0061882,
                0.0135097,
                -0.0438865,
                -0.00148944,
                -0.159603,
                0.0207741,
                -0.016295,
                -0.0780546,
                0.116536,
                0.00597958,
                0.024901,
                -0.092746,
                0.0735376,
                -0.00679778,
                0.291286,
                -0.0642398,
                0.0266403,
                -0.131307,
                0.22284,
                -0.0302725,
                -0.0117041,
                0.0639504,
                -0.0289315,
                0.0632693,
                0.0242506,
                -0.244285,
                -0.0815139,
                -0.141516,
                -0.162387,
                0.0860868,
                0.103719,
                -0.132744,
                0.00149878,
                -0.0701624,
                -0.117109,
                0.13956,
                0.0441043,
                0.0872874,
                -0.0185712,
                -0.0513662,
                0.136895,
                0.147385,
                -0.0885782,
                -0.0768692,
                -0.027918,
                -0.0178446,
                -0.0514299,
                0.065611,
                -0.132378,
                0.108684,
                0.0562411,
                0.000546643,
                -0.0316667,
                0.126923,
                0.08524,
                0.0303377,
                0.132634,
                0.121852,
                -0.122999,
                -0.0988004,
                0.134001,
                0.152414,
                -0.00388373,
                -0.133055,
                0.0199846,
                -0.0896331,
                0.149115,
                -0.0130924,
                -0.0272543,
                -0.165714,
                0.159651,
                -0.101891,
                -0.0364013,
                -0.141827,
                -0.137205,
                -0.0018547,
                -0.0846313,
                -0.0715531,
                0.00922493,
                -0.0218887,
                -0.0133382,
                -0.0410972,
                -0.0316771,
                -0.0382202,
                -0.0322199,
                -0.0231682,
                0.190754,
                0.0203935,
                0.100614,
                -0.0840788,
                -0.0724841,
                0.00703227,
                0.0378459,
                0.0668345,
                -0.0106074,
                0.0535199,
                0.0578075,
                -0.160657,
                0.00887479,
                -0.0380588,
                0.0403237,
                -0.080936,
                0.0338593,
                0.288181,
                -0.21947,
                0.0139865,
                0.00381803,
                0.0861704,
                0.00500681,
                -0.141329,
                -0.0308629,
                0.015853,
                0.0336647,
                0.017798,
                0.0784721,
                -0.00407545,
                0.0663657,
                -0.0217373,
                0.0213394,
                -0.171262,
                0.153176,
                -0.0354445,
                0.247556,
                -0.030238,
                -0.0391104,
                0.0501733,
                0.033335,
                -0.0905277,
                0.059226,
                -0.138988,
                -0.0315544,
                -0.0294779,
                -0.2261,
                -0.0328996,
                -0.0612078,
                0.0956023,
                -0.040145,
                -0.0856561,
                0.118552,
                -0.0600385,
                0.106778,
                0.128397,
                -0.149607,
                0.0194883,
                -0.0541274,
                -0.010563,
                -0.146974,
                0.00921118,
                0.0770556,
                -0.189856,
                0.189524,
                0.0349094,
                -0.0121948,
                0.122366,
                0.142728,
                -0.0674054,
                0.0530212,
                -0.0567585,
                0.0794946,
                0.238474,
                0.0154635,
                0.0363309,
                0.177512,
                -0.134474,
                -0.0874011,
                0.00936814,
                0.179266,
                0.205328,
                0.00168411,
                0.155701,
                -0.00981377,
                -0.0242785,
                0.211832,
                0.0960469,
                -0.0324502,
                -0.097751,
                0.00451609,
                0.0660147,
                0.189575,
                -0.0698918,
                0.00425239,
                0.0467322,
                -0.0216417,
                -0.00764486,
                0.176675,
                0.056367,
                0.132377,
                0.10649,
                0.0015712,
                -0.004561,
                -0.0982029,
                0.00880379,
                -0.0386044,
                0.0419635,
                -0.0938757,
                -0.0626038,
                -0.0430715,
                -0.109111,
                -0.054356,
                0.0105224,
                0.0221302,
                0.0782686,
                -0.00366173,
                0.133893,
                -0.155299,
                -0.00568346,
                0.0610992,
                -0.0365201,
                -0.102073,
                -0.199679,
                -0.100272,
                -0.0723441,
                0.101536,
                0.101852,
                -0.181869,
                0.150402,
                -0.03531,
                -0.00789387,
                -0.0540763,
                0.123426,
                0.0315705,
                -0.103937,
                -0.0805134,
                0.113789,
                0.0230782,
                -0.082559,
                0.0538858,
                -0.0273369,
                0.0721382,
                0.0676225,
                -0.030672,
                9.86537e-05,
                -0.107188,
                0.0798403,
                0.0914945,
                0.054307,
                -0.117853,
                -0.107126,
                -0.0387435,
                -0.0995008,
                0.0263462,
                -0.0910708,
                -0.0528742,
                0.170832,
                0.0523307,
                -0.123445,
                -0.103254,
                -0.0407158,
                -0.0889206,
                0.0683143,
                0.0576195,
                0.0569637,
                -0.0151511,
                -0.0814229,
                0.0670918,
                -0.0681644,
                -0.00236633,
                0.0285338,
                0.0502669,
                -0.124799,
                0.0205573,
                -0.0860909,
                -0.00786889,
                0.0336929,
                0.0144303,
                -0.062694,
                0.128658,
                -0.135811,
                -0.0582687,
                -0.120962,
                0.0655867,
                -0.136602,
                0.0158444,
                0.0671321,
                -0.179233,
                0.194709,
                0.131456,
                0.147551,
                -0.0506294,
                -0.0719925,
                0.0208153,
                0.0574483,
                -0.0192441,
                -0.189528,
                -0.112368,
                0.136428,
                -0.124583,
                -0.0466014,
                0.0696989,
                -0.040644,
                0.0544061,
                -0.0594567,
                -0.138245,
                -0.0520197,
                0.133926,
                -0.117901,
                0.0594196,
                0.0296367,
                -0.109472,
                0.105591,
                0.0611872,
                0.0811868,
                0.12569,
                0.145143,
                0.0606481,
                -0.0397428,
                -0.173923,
                -0.125521,
                -0.112595,
                0.155285,
                -0.0327675,
                -0.0383064,
                0.105314,
                0.0461629,
                -0.0206328,
                0.141412,
                0.0523061,
                -0.0987874,
                0.106394,
                0.0513696,
                0.187771,
                0.0325941,
                -0.0040564,
                -0.0473818,
                0.035617,
                0.0965155,
                -0.0530764,
                -0.0440752,
                0.0641265,
                0.0177414,
                -0.154318,
                0.0274277,
                0.11536,
                -0.0769752,
                -0.165916,
                -0.0486285,
                -0.00138071,
                -0.122912,
                0.142882,
                0.121907,
                -0.0983053,
                -0.0534287,
                -0.108175,
                0.0435528,
                -0.039748,
                -0.146968,
                -0.0168156,
                -0.0369047,
                -0.162593,
                -0.0558738,
                -0.0812349,
                -0.0634953,
                0.170144,
                0.126003,
                0.128232,
                -0.0666783,
                -0.0526145,
                -0.0238009,
                -0.0291893,
                0.0448031,
                -0.013552,
                -0.00219974,
                -0.15022,
                0.0629342,
                0.111624,
                0.0275972,
                -0.0516616,
                -0.033782,
                -0.181574,
                0.0812571,
                -0.00125279,
                0.0408691,
                0.134967,
                0.071383,
                -0.129377,
                0.112158,
                0.153826,
                0.0113866,
                -0.114972,
                -0.171861,
                -0.108106,
                0.0492088,
                -0.0780892,
                -0.0410276,
                0.0402226,
                -0.0367068,
                -0.0600056,
                0.108099,
                0.0899096,
                0.115065,
                -0.0213952,
                0.0476502,
                0.0229812,
                -0.0345876,
                -0.160346,
                -0.0691465,
                -0.179888,
                0.0302761,
                0.0457603,
                -0.131377,
                0.0231738,
                0.149724,
                -0.0633392,
                -0.204325,
                -0.00628107,
                0.0311795,
                -0.0217884,
                -0.00329108,
                0.155331,
                0.0198133,
                0.0991253,
                -0.0974691,
                -0.00534788,
                -0.0248721,
                0.0164251,
                0.0804003,
                -0.0113009,
                -0.141252,
                0.0199711,
                -0.198589,
                0.0488313,
                0.145076,
                -0.180232,
                0.00707543,
                -0.112701,
                -0.15937,
                0.0918171,
                -0.0635634,
                0.126259,
                -0.230035,
                0.0729854,
                0.0256604,
                0.238589,
                0.029971,
                -0.0512929,
                0.259494,
                0.035484,
                0.138307,
                -0.046094,
                -0.226882,
                -0.154312,
                -0.0804736,
                -0.0755435,
                -0.0490697,
                -0.00533664,
                0.0322976,
                0.175728,
                -0.0159522,
                -0.0556559,
                -0.0830304,
                0.0434863,
                0.0206081,
                0.163861,
                -0.0916068,
                -0.0643562,
                0.0602552,
                0.103898,
                -0.151479,
                0.0244689,
                -0.0536084,
                -0.117431,
                -0.0276749,
                0.200018,
                -0.105825,
                -0.0705111,
                0.116267,
                0.00884325,
                -0.160829,
                -0.0762071,
                0.169597,
                0.151082,
                0.130466,
                0.0738756,
                0.0434944,
                0.115049,
                -0.0916266,
                0.0812144,
                0.0542011,
                0.139666,
                -0.106543,
                0.0526251,
                0.0526149,
                0.0454448,
                -0.0515653,
                0.0192791,
                -0.00119362,
                0.00143354,
                -0.169238,
                0.0315109,
                0.0378074,
                -0.021954,
                -0.106887,
                -0.0794021,
                0.0464206,
                0.0417037,
                0.158751,
                -0.0508126,
                0.184376,
                -0.0324211,
                -0.0733143,
                -0.0307158,
                -0.0412783,
                0.0249235,
                0.167638,
                0.116303,
                -0.0541288,
                -0.0429935,
                0.113202,
                0.0613248,
                0.0956009,
                -0.0188716,
                0.0975614,
                0.0381383,
                -0.110098,
                0.168867,
                -0.0684963,
                -0.0126987,
                -0.182481,
                0.0503306,
                -0.0592663,
                0.301882,
                0.0482935,
                0.0387057,
                -0.108709,
                -0.0194829,
                0.181992,
                -0.0541854,
                -0.0250105,
                -0.15771,
                -0.00985885,
                0.0250828,
                -0.0704761,
                -0.0431361,
                -0.0209563,
                0.0437508,
                -0.112032,
                0.0916204,
                -0.0128997,
                0.0162419,
                -0.046234,
                -0.0479236,
                0.126721,
                -0.0783944,
                0.0564069,
                0.124112,
                -0.138195,
                -0.0720749,
                -0.0805265,
                -0.103589,
                -0.0730261,
                0.0639016,
                0.0441591,
                -0.000961474,
                -0.105669,
                0.0741354,
                0.184531,
                -0.094953,
                -0.0299798,
                -0.0091072,
                -0.0372569,
                0.155703,
                -0.0500033,
                0.0634451,
                -0.0587348,
                -0.0127518,
                0.0632709,
                -0.125302,
                -0.0281358,
                -0.0824566,
                -0.0719034,
                0.0386386,
                -0.0985665,
                0.0770927,
                0.0774244,
                -0.0671103,
                0.0970931,
                0.146269,
                -0.0509819,
                -0.097656,
                0.0317507,
                -0.0473334,
                -0.0585427,
                0.0341983,
                -0.000507871,
                0.153545,
                0.0152538,
                -0.191097,
                0.195967,
                0.258244,
                0.0125331,
                -0.0967717,
                -0.0284328,
                0.0411648,
                0.281705,
                -0.00219331,
                -0.0549212,
                -0.00122786,
                0.0602472,
                0.0929418,
                0.0147594,
                -0.0149003,
                -0.161949,
                0.0278419,
                0.00569634,
                0.0821128,
                0.0321183,
                0.0681654,
                0.104321,
                0.0843302,
                -0.13878,
                -0.168581,
                0.101103,
                0.00886665,
                0.0803731,
                -0.185303,
                0.0868449,
                0.0438986,
                -0.0933999,
                0.159939,
                -0.0256867,
                -0.0389107,
                0.0902164,
                -0.118322,
                -0.10017,
                0.0346278,
                -0.0669812,
                0.0777454,
                0.00271034,
                -0.136706,
                0.0395026,
                0.133211,
                -0.0043522,
                -0.0699862,
                0.0612595,
                -0.0503071,
                -0.0433077,
                0.143275,
                -0.0455201,
                0.0334222,
                0.00983895,
                0.0542218,
                0.0358575,
                0.0405688,
                0.080624,
                0.00934343,
                0.0371748,
                -0.109839,
                -0.028415,
                -0.139823,
                -0.0499998,
                -0.0937518,
                -0.0232815,
                -0.0271842,
                0.105058,
                -0.0154969,
                -0.165785,
                0.190395,
                0.117752,
                0.00151621,
                0.00914682,
                0.00684228,
                -0.00926791,
                0.0182574,
                0.0443588,
                -0.156904,
                0.0470769,
                -0.0273956,
                0.068881,
                -0.208829,
                -0.18456,
                -0.0923618,
                -0.0574679,
                0.140614,
                -0.253375,
                -0.154789,
                0.190838,
                -0.0812178,
                -0.133649,
                -0.0198227,
                -0.22735,
                -0.0411232,
                0.114503,
                -0.0245664,
                0.129479,
                0.0218471,
                -0.288292,
                0.141369,
                -0.0261592,
                -0.0939592,
                -0.0580295,
                0.189191,
                0.0388955,
                -0.00183118,
                -0.0106615,
                0.125508,
                0.117907,
                0.101374,
                -0.0993105,
                -0.0074042,
                0.0444356,
                -0.027852,
                0.057057,
                0.0857188,
                -0.164847,
                -0.118136,
                -0.146449,
                0.13335,
                0.139594,
                -0.182535,
                -0.11695,
                -0.0337224,
                0.0700886,
                0.157485,
                -0.00665929,
                -0.164743,
                -0.129378,
                -0.142124,
                0.04423,
                -0.0377832,
                -0.106416,
                0.078533,
                0.0543268,
                -0.0603751,
                0.123297,
                -0.158604,
                -0.0076853,
                -0.228768,
                -0.0546679,
                0.00248486,
                0.0182095,
                -0.00930515,
                0.0481046,
                -0.0245904,
                0.037687,
                -0.110081,
                -0.0237444,
                -0.0773456,
                -0.1768,
                0.113715,
                0.0508218,
                0.116741,
                -0.0648445,
                0.0399618,
                -0.182647,
                -0.0226989,
                -0.106965,
                0.127709,
                -0.00812833,
                0.104289,
                0.161577,
                -0.110743,
                -0.0199011,
                0.0631654,
                -0.00056203,
                0.0567267,
                0.0197002,
                -0.0233503,
                0.0564114,
                0.0791186,
                -0.142456,
                -0.0223313,
                0.154216,
                0.0544171,
                0.0465377,
                -0.162749,
                -0.00997577,
                0.00897709,
                0.106579,
                -0.0123469,
                -0.164554,
                0.0643299,
                0.0248495,
                0.120452,
                0.0137321,
                -0.0822606,
                -0.0259266,
                0.0105441,
                -0.0172057,
                -0.142555,
                0.00690494,
                -0.125601,
                -0.0527066,
                -0.117595,
                0.0808972,
                0.0510299,
                0.0631126,
                -0.0719506,
                -0.144004,
                0.288543,
                -0.0337284,
                0.0977901,
                0.00561096,
                -0.0530184,
                0.161462,
                0.150119,
                0.0336431,
                0.0130475,
                -0.199535,
                -0.183657,
                0.0133739,
                -0.20915,
                -0.06296,
                -0.087627,
                -0.0141775,
                -0.101301,
                0.0138152,
                -0.0304005,
                -0.0124501,
                0.0827458,
                -0.0939673,
                0.0272126,
                0.0481156,
                -0.420759,
                0.0635175,
                0.0227616,
                0.0830044,
                0.0231858,
                0.064908,
                0.167345,
                -0.251852,
                0.136367,
                -0.11293,
                0.0241565,
                -0.0893374,
                -0.137545,
                0.0968677,
                -0.132617,
                -0.0165822,
                0.0493624,
                0.0844086,
                0.113297,
                0.0693673,
                -0.0346705,
                -0.0405555,
                -0.147881,
                -0.0940466,
                0.0127535,
                -0.052684,
                0.00806643,
                0.119569,
                0.157542,
                -0.0352578,
                0.141653,
                0.0273951,
                -0.0907322,
                -0.0621966,
                0.0873292,
                -0.0165683,
                -0.0896503,
                0.0864966,
                -0.158854,
                -0.0923668,
                0.0191189,
                0.0697473,
                0.00984802,
                -0.0301772,
                0.0039107,
                0.0563995,
                -0.214805,
                -0.111105,
                0.0210625,
                -0.0329369,
                0.171998,
                -0.0630625,
                0.03205,
                0.140902,
                -0.0400153,
                0.0981411,
                0.109847,
                -0.134457,
                -0.124241,
                0.0294214,
                0.0448995,
                -0.0557768,
                0.108032,
                -0.0101052,
                -0.021999,
                0.105757,
                -0.106383,
                0.110831,
                -0.0326553,
                -0.0256642,
                -0.0944536,
                0.140946,
                0.0326805,
                -0.0480347,
                -0.130187,
                -0.00857847,
                0.0554496,
                -0.0357524,
                -0.104251,
                0.00123791,
                -0.0294665,
                0.179654,
                -0.0330291,
                -0.0550153,
                0.132118,
                -0.164227,
                -0.131709,
                -0.0723271,
                -0.0582218,
                0.0608603,
                -0.0114361,
                0.00902927,
                -0.0299187,
                -0.0428161,
                0.00880252,
                -0.192538,
                0.119008,
                -0.0203567,
                0.0535115,
                -0.214069,
                0.148064,
                0.0397764,
                0.00222128,
                0.14009,
                0.120528,
                -0.074238,
                -0.0928103,
                0.00943192,
                0.117922,
                0.114674,
                0.0372158,
                0.103664,
                -0.0203754,
                0.0185858,
                -0.0478053,
                -0.0770713,
                -0.023116,
                0.0309202,
                0.0405027,
                0.0825743,
                -0.0478573,
                -0.124454,
                -0.19648,
                -0.186673,
                -0.0906361,
                0.0413864,
                -0.0105413,
                -0.0810138,
                0.0139923,
                -0.0150296,
                0.00209777,
                0.0352654,
                -0.00109497,
                0.0658975,
                -0.0393659,
                0.183719,
                0.0959264,
                -0.0897649,
                0.191896,
                -0.081369,
                -0.044504,
                -0.00219227,
                -0.122508,
                0.00601059,
                -0.138432,
                -0.0444851,
                0.165144,
                -0.0973098,
                -0.000945534,
                -0.198652,
                0.0742328,
                0.249024,
                -0.0672477,
                0.0273622,
                -0.0340478,
                -0.0987617,
                0.0189559,
                -0.166676,
                -0.0351388,
                0.0128206,
                0.0906385,
                -0.0845917,
                0.00580275,
                0.0856392,
                -0.197846,
                0.00405438,
                -0.0662112,
                -0.0460245,
                -0.0976444,
                0.218654,
                0.101626,
                -0.0193548,
                -0.10091,
                0.112044,
                0.0234568,
                -0.13018,
                -0.0682733,
                -0.0208,
                -0.116394,
                0.131973,
                -0.0989778,
                -0.064894,
                -0.095316,
                0.163708,
                -0.0101563,
                -0.0263712,
                -0.228342,
                0.132228,
                0.0608712,
                -0.139378,
                0.179328,
                -0.00596406,
                -0.0268695,
                0.198723,
                -0.116071,
                -0.0747894,
                0.120573,
                0.086986,
                -0.00722582,
                -0.0274979,
                -0.0763327,
                0.192476,
                -0.159296,
                -0.0825714,
                -0.080818,
                0.0681628,
                0.0221131,
                0.137507,
                -0.0267492,
                -0.00709118,
                -0.0998549,
                -0.0211138,
                -0.235062,
                0.0240049,
                -0.0354099,
                -0.0862013,
                -0.210279,
                0.038563,
                0.0570877,
                -0.0393361,
                -0.0226724,
                -0.0287315,
                0.0335432,
                -0.20176,
                -0.142927,
                -0.112534,
                0.0247454,
                0.0779821,
                0.031697,
                -0.0400587,
                -0.0518254,
                0.0506243,
                0.070864,
                0.0144153,
                -0.218927,
                -0.127745,
                0.0770122,
                -0.119262,
                -0.0378977,
                -0.0750405,
                0.276877,
                0.0683694,
                -0.0369426,
                -0.04636,
                -0.0560995,
                -0.160431,
                0.00360006,
                0.00389327,
                -0.00661454,
                0.255662,
                0.0176096,
                0.102056,
                -0.0705346,
                0.0567321,
                -0.0562122,
                -0.046971,
                -0.117819,
                -0.0513527,
                0.00457819,
                0.0619588,
                -0.0559238,
                0.0119341,
                0.0657323,
                -0.0236359,
                -0.00498884,
                -0.0186944,
                -0.165503,
                0.0090212,
                -0.145888,
                0.0102205,
                0.144606,
                0.0919413,
                -0.145657,
                0.06459,
                -0.0297605,
                0.13803,
                -0.0809362,
                0.0948098,
                -0.127202,
                -0.0383909,
                0.0417375,
                0.0278145,
                0.00664609,
                -0.00140708,
                -0.0550657,
                -0.0634347,
                0.150252,
                0.177313,
                0.103474,
                0.192578,
                -0.0330765,
                -0.195404,
                -0.115932,
                0.0821211,
                0.18037,
                -0.00517792,
                -0.148093,
                -0.0454992,
                -0.0180705,
                -0.0103324,
                0.0741902,
                0.0432945,
                0.0837831,
                -0.0435964,
                0.0464496,
                -0.15718,
                0.239939,
                -0.0277042,
                0.0286946,
                0.0884272,
                0.0431822,
                0.0259352,
                -0.181162,
                0.0268442,
                -0.0213185,
                -0.119857,
                -0.0244869,
                -0.0461716,
                -0.00456281,
                0.0674735,
                -0.0337664,
                0.0302779,
                -0.155474,
                -0.0281439,
                0.0872736,
                -0.0654564,
                -0.107972,
                0.091311,
                -0.0657237,
                -0.113168,
                0.0894173,
                0.0470773,
                0.187976,
                -0.250316,
                0.140391,
                0.0320663,
                0.0819049,
                0.0376235,
                -0.191304,
                0.0731019,
                -0.0534562,
                -0.0516008,
                0.0549116,
                0.0609452,
                0.0320648,
                0.0884897,
                -0.025136,
                -0.0790809,
                -0.00826313,
                0.144201,
                -0.117447,
                -0.0625341,
                -0.215295,
                0.000227824,
                0.140255,
                0.111449,
                0.136177,
                -0.0630516,
                0.0296967,
                -0.0204393,
                -0.0714985,
                -0.0495713,
                0.140737,
                -0.0764463,
                -0.147018,
                -0.091557,
                -0.074796,
                0.0181083,
                -0.0792807,
                -0.038958,
                0.0104263,
                -0.000933904,
                -0.15781,
                0.11602,
                -0.18316,
                0.220388,
                -0.118521,
                -0.0250855,
                -0.0504425,
                -0.25322,
                0.000625732,
                -0.0564507,
                -0.0319409,
                0.152577,
                0.234267,
                0.0850406,
                0.00641232,
                0.0139583,
                -0.149835,
                -0.0651181,
                -0.134967,
                0.0163921,
                0.0806507,
                0.107847,
                0.0523036,
                -0.0439236,
                0.18451,
                0.275652,
                -0.0363545,
                -0.000865974,
                0.177688,
                -0.0908146,
                0.0155126,
                0.0389533,
                0.101932,
                -0.220796,
                -0.0730988,
                0.0205916,
                0.160035,
                -0.0458304,
                0.029514,
                -0.0140917,
                -0.0426311,
                -0.043451,
                -0.107704,
                -0.0179436,
                0.0648643,
                -0.0366766,
                0.150224,
                0.16487,
                -0.23868,
                0.0273972,
                0.0265362,
                0.0281849,
                0.0685652,
                -0.184294,
                0.0725506,
                -0.121108,
                0.0557988,
                -0.00353049,
                -0.164127,
                0.220446,
                0.0292329,
                0.00730656,
                -0.102662,
                -0.0346251,
                -0.0233214,
                -0.0438043,
                -0.069292,
                0.0524425,
                0.129956,
                -0.0451321,
                -0.0845731,
                -0.0145964,
                0.0801481,
                0.0368898,
                -0.118869,
                -0.0830405,
                0.0305509,
                -0.160395,
                0.0565562,
                -0.0391024,
                0.0576563,
                0.0953435,
                0.093397,
                -0.0132194,
                -0.0536411,
                0.212291,
                0.0611312,
                0.071708,
                0.0883701,
                -0.058583,
                0.036635,
                0.135014,
                -0.0417649,
                0.0674488,
                -0.14298,
                -0.0138612,
                0.0713615,
                0.0174934,
                0.0152354,
                0.118024,
                0.185021,
                0.0240288,
                -0.04951,
                -0.00285643,
                0.0184653,
                -0.0132642,
                -0.114447,
                -0.105067,
                0.0825742,
                -0.0566922,
                -0.115638,
                -0.0678476,
                0.0954711,
                0.0972736,
                -0.0437284,
                -0.0421934,
                0.109459,
                0.0472404,
                0.0330878,
                -0.291783,
                0.13121,
                -0.0965983,
                -0.0826756,
                -0.0575662,
                -0.0775368,
                -0.140267,
                -0.105049,
                -0.108677,
                -0.0923094,
                0.0948841,
                -0.0321526,
                0.0553896,
                -0.0252868,
                -0.0902734,
                0.00073332,
                0.0650235,
                0.126678,
                0.10711,
                0.12898,
                0.021242,
                0.0689161,
                0.0419234,
                0.033178,
                -0.103912,
                -0.0458171,
                -0.0777928,
                -0.027775,
                0.0683832,
                0.0147112,
                -0.0408658,
                0.0845091,
                -0.0689288,
                0.129785,
                0.181634,
                0.0117248,
                0.0874105,
                0.0867446,
                0.19473,
                -0.0212558,
                0.0735954,
                0.127573,
                0.133389,
                0.04564,
                0.144151,
                -0.149419,
                0.0902983,
                -0.197995,
                0.0598525,
                -0.0069527,
                0.207073,
                -0.00386466,
                -0.114961,
                0.0836141,
                -0.133725,
                0.056962,
                0.0267577,
                -0.0317898,
                -0.0010944,
                -0.108091,
                0.0376302,
                0.0143916,
                0.0260383,
                0.0430225,
                0.0521326,
                -0.0821084,
                -0.0086832,
                0.0724071,
                0.0811931,
                0.0296675,
                -0.0468642,
                0.0788408,
                0.0676567,
                0.0925451,
                -0.103823,
                -0.0589582,
                -0.130003,
                0.0245397,
                -0.101279,
                0.154425,
                0.0974936,
                0.0489366,
                0.249853,
                -0.124295,
                -0.0863887,
                -0.0110705,
                0.068886,
                0.0539695,
                -0.0598328,
                0.000862525,
                0.00478635,
                0.0235282,
                -0.240916,
                -0.0797737,
                0.0502883,
                0.122398,
                0.0769321,
                -0.0621009,
                0.0398251,
                0.0535951,
                0.0283526,
                0.130649,
                0.0159242,
                -0.000178021,
                -0.282222,
                0.0935835,
                -0.122697,
                -0.217988,
                0.00801117,
                0.0730875,
                -0.00626606,
                -0.0707566,
                -0.0253743,
                -0.00718597,
                -0.0949973,
                -0.0682599,
                -0.0878178,
                0.0420916,
                0.0761708,
                -0.148502,
                0.0306172,
                0.0179695,
                0.0112153,
                0.02059,
                0.0286276,
                0.00534919,
                0.10326,
                0.0843677,
                -0.140107,
                -0.017134,
                0.141326,
                0.0229141,
                0.0977563,
                0.0119041,
                -0.164124,
                -0.026973,
                0.0455879,
                -0.0285141,
                -0.115083,
                -0.0524687,
                0.00398794,
                0.00800046,
                -0.077223,
                0.136526,
                -0.0685688,
                0.0869605,
                0.0929433,
                0.000230013,
                -0.104455,
                0.24491,
                -0.0275582,
                0.004753,
                0.101206,
                -0.082129,
                0.0982875,
                0.0700835,
                -0.0366784,
                0.0488186,
                -0.00895243,
                -0.0873415,
                0.0667384,
                -0.0301428,
                -0.0309269,
                -0.0945147,
                0.00662355,
                0.0562021,
                -0.283755,
                -0.0814393,
                -0.00268133,
                0.0351096,
                0.00387293,
                0.10567,
                0.224379,
                0.0257519,
                -0.0975242,
                0.0202871,
                0.0585486,
                0.0354525,
                -0.120048,
                -0.04441,
                -0.0932222,
                -0.0238263,
                -0.0441985,
                -0.052388,
                0.0477551,
                -0.0539081,
                -0.0974768,
                0.0505806,
                -0.051848,
                -0.0342461,
                0.0613782,
                0.147938,
                -0.207846,
                -0.0142417,
                0.010083,
                0.0283089,
                -0.173964,
                0.12947,
                0.041167,
                -0.155667,
                -0.144912,
                -0.0260552,
                -0.00379131,
                0.0292567,
                0.205409,
                -0.079006,
                0.189392,
                0.159914,
                0.000937876,
                0.0209023,
                0.0927019,
                -0.132346,
                0.0070851,
                0.129636,
                0.0894956,
                -0.0653304,
                -0.110445,
                -0.0388626,
                0.0754488,
                0.0340347,
                0.0712413,
                0.0156277,
                0.132761,
                0.0170895,
                -0.0522155,
                0.0234778,
                0.0585202,
                -0.183557,
                0.0359517,
                0.186371,
                -0.025038,
                0.0403216,
                0.00078873,
                0.0116259,
                -0.00593138,
                0.00675569,
                0.146654,
                -0.0448978,
                0.104794,
                0.142713,
                0.0667129,
                0.117223,
                0.159659,
                -0.00854685,
                0.13447,
                0.0607928,
                0.0380569,
                -0.0321365,
                -0.131538,
                0.0772047,
                0.215905,
                -0.0894379,
                0.0843439,
                0.021081,
                0.184523,
                -0.102126,
                -0.0330055,
                0.0143366,
                0.0296961,
                0.0913069,
                0.0664461,
                0.00346226,
                -0.039629,
                0.121144,
                -0.0195414,
                0.199638,
                0.0697196,
                0.266311,
                0.00156181,
                0.153779,
                0.00392195,
                0.0492239,
                0.0445453,
                -0.064809,
                -0.0553459,
                -0.0744562,
                0.0535054,
                0.201392,
                -0.0311445,
                0.19644,
                0.0466607,
                0.145075,
                0.121049,
                0.121228,
                -0.156584,
                0.1266,
                0.105311,
                -0.0444997,
                -0.00919561,
                -0.0514028,
                0.123136,
                -0.02432,
                0.0629895,
                -0.019761,
                -0.0933454,
                -0.151115,
                0.297468,
                0.129644,
                0.0613431,
                -0.172694,
                -0.0837783,
                -0.0275909,
                0.121634,
                -0.0785185,
                0.0540587,
                0.0603172,
                -0.00576645,
                0.164929,
                -0.0680973,
                0.0355034,
                0.0270676,
                0.0536385,
                0.142162,
                -0.12933,
                0.0535979,
                -0.150771,
                -0.180045,
                0.0503812,
                0.186958,
                -0.126286,
                0.139561,
                0.0329657,
                -0.24984,
                0.196193,
                0.112045,
                -0.100905,
                -0.114392,
                0.0467681,
                0.0799607,
                0.0331757,
                -0.0785288,
                0.0501348,
                -0.0298255,
                -0.163935,
                -0.104709,
                0.132211,
                0.118518,
                0.0108307,
                -0.0246127,
                0.1217,
                -0.0422162,
                -0.213869,
                -0.00263306,
                -0.143926,
                -0.182932,
                0.00852865,
                -0.0447401,
                -0.117626,
                -0.0905728,
                0.126917,
                -0.0609841,
                -0.00580356,
                0.116582,
                -0.00898369,
                0.164077,
                0.00425566,
                -0.178911,
                -0.065482,
                0.0641386,
                -0.0764821,
                -0.0995724,
                -0.0692638,
                0.0578488,
                -0.120858,
                0.0894585,
                -0.177794,
                0.150906,
                -0.144209,
                -0.0353954,
                0.00257655,
                -0.0289258,
                -0.0812973,
                -0.0101711,
                -0.0755384,
                -0.012954,
                0.188408,
                -0.00825347,
                -0.0961862,
                0.0162729,
                -0.18951,
                0.0635246,
                0.0723385,
                0.000771699,
                -0.0856322,
                -0.250975,
                -0.178151,
                -0.12898,
                0.00528565,
                0.147345,
                -0.174551,
                -0.251054,
                0.0489107,
                0.0901174,
                0.0701956,
                0.195842,
                -0.0192802,
                -0.0461651,
                -0.141645,
                0.216515,
                0.0947246,
                0.0731408,
                -0.075559,
                -0.113265,
                -0.00307271,
                0.0556705,
                -0.0289181,
                -0.00569923,
                -0.0385865,
                0.0276872,
                0.125645,
                0.0562453,
                0.1379,
                0.0873073,
                -0.072262,
                0.114402,
                0.0870867,
                0.0510273,
                -0.0731568,
                -0.0752856,
                0.0484289,
                0.0766957,
                -0.0912224,
                0.126122,
                -0.147021,
                0.00389527,
                -0.128913,
                0.136683,
                0.0389761,
                -0.0326737,
                -0.0899473,
                0.0718377,
                0.0301549,
                -0.103732,
                -0.104243,
                -0.0306523,
                -0.144933,
                0.0589992,
                0.17793,
                0.0234771,
                0.0608578,
                -0.0536495,
                0.0920976,
                -0.081181,
                0.114499,
                -0.0950509,
                0.115556,
                0.0213926,
                -0.00772828,
                0.00454078,
                0.172866,
                0.0964277,
                -0.105684,
                -0.0885789,
                -0.110101,
                0.0133162,
                0.130595,
                0.0591808,
                0.0140078,
                0.060796,
                0.0469633,
                0.0594245,
                -0.0143092,
                -0.166389,
                -0.0769625,
                0.126107,
                -0.123808,
                0.193,
                0.0528714,
                0.0423766,
                -0.129811,
                0.10042,
                0.126273,
                -0.0233079,
                -0.0410301,
                0.13688,
                -0.0033349,
                0.103318,
                0.00610049,
                0.0716331,
                -0.0340632,
                -0.0819541,
                -0.138405,
                -0.151788,
                0.0407008,
                -0.0502157,
                0.056283,
                -0.0991006,
                -0.168129,
                0.0477429,
                -0.0597081,
                -0.180204,
                0.0315393,
                -0.00869827,
                0.00120015,
                0.0479767,
                -0.0976598,
                0.170126,
                0.148061,
                0.0317069,
                0.0379707,
                -0.0939915,
                -0.0798828,
                0.0640457,
                0.0747977,
                -0.022832,
                -0.106453,
                0.0639647,
                -0.19589,
                -0.104229,
                0.105686,
                0.0365377,
                0.0310711,
                0.102263,
                -0.165348,
                -0.0855222,
                0.113661,
                0.1665,
                -0.184836,
                0.00750582,
                -0.0922005,
                -0.0351708,
                0.0888548,
                -0.11976,
                0.0283751,
                -0.178957,
                -0.120918,
                -0.0286565,
                -0.0137604,
                -0.0228429,
                0.0239131,
                -0.122226,
                -0.12483,
                0.0416953,
                0.0810988,
                -0.0344226,
                0.0879501,
                0.000764082,
                0.142966,
                0.119081,
                0.100543,
                0.122491,
                -0.0913115,
                -0.10624,
                0.0254098,
                -0.00159317,
                0.0109454,
                0.050201,
                -0.172857,
                0.053608,
                -0.0854688,
                -0.042145,
                -0.0872012,
                -0.0671519,
                -0.0078325,
                -0.00877296,
                0.05723,
                0.105869,
                -0.225101,
                -0.00347291,
                0.0672769,
                -0.0257872,
                -0.0227169,
                7.52281e-05,
                0.160878,
                -0.0238796,
                0.0437276,
                0.0358358,
                0.0778515,
                0.0343123,
                0.0173253,
                -0.0606062,
                -0.0638679,
                -0.098884,
                0.0901207,
                0.00952144,
                -0.0939883,
                -0.0291815,
                0.00524092,
                -0.163586,
                0.0218209,
                0.00149312,
                0.120545,
                0.0487289,
                -0.0564981,
                -0.00667421,
                0.0256449,
                0.194437,
                -0.101343,
                0.0667592,
                0.160995,
                0.0041713,
                -0.0981644,
                0.0112466,
                -0.153652,
                -0.153514,
                0.0326099,
                -0.0409949,
                -0.0550191,
                -0.212195,
                -0.0753267,
                -0.100206,
                -0.0112705,
                -0.0391256,
                -0.0350406,
                0.0958033,
                -0.0201415,
                -0.278517,
                0.144853,
                -0.0911424,
                -0.0112426,
                0.0673137,
                0.170963,
                0.070216,
                -0.0128869,
                0.0265666,
                0.0187825,
                -0.0769411,
                -0.168086,
                0.0589811,
                0.102005,
                -0.0111759,
                -0.274322,
                0.0514071,
                0.182652,
                0.102917,
                -0.0300768,
                -0.0143667,
                -0.0990563,
                0.0633292,
                -0.0721006,
                0.180832,
                0.106136,
                0.0244526,
                -0.0227904,
                -0.119764,
                0.0669895,
                0.165068,
                -0.00493893,
                0.0781354,
                -0.0781194,
                -0.071251,
                -0.111524,
                0.0481638,
                0.0934738,
                -0.0632923,
                0.114024,
                -0.0100777,
                -0.127096,
                0.00430237,
                0.111805,
                0.0514673,
                -0.132982,
                -0.14879,
                0.0431448,
                -0.0177911,
                0.169359,
                0.00594399,
                0.0407396,
                0.137688,
                -0.0210374,
                -0.0055386,
                -0.01725,
                -0.0739722,
                -0.116662,
                0.00478602,
                -0.0842447,
                -0.0905344,
                0.0684239,
                -0.0147474,
                0.251525,
                0.131334,
                -0.0567234,
                -0.0263883,
                -0.0509083,
                0.124281,
                0.179292,
                -0.0169284,
                -0.157143,
                -0.000308516,
                0.0645626,
                -0.114243,
                -0.17283,
                0.112877,
                0.0650774,
                -0.0222968,
                -0.178802,
                -0.148306,
                -0.141989,
                -0.18711,
                -0.0815206,
                0.132165,
                0.0561299,
                -0.0734622,
                0.0973767,
                -0.0775548,
                0.133525,
                0.122957,
                -0.140546,
                -0.0289736,
                -0.0761325,
                -0.132074,
                -0.00235938,
                -0.110558,
                -0.046135,
                -0.0784756,
                -0.212272,
                -0.0308844,
                0.139183,
                -0.00432729,
                -0.169369,
                -0.0868247,
                0.052172,
                0.0573983,
                -0.131473,
                -0.153179,
                0.144914,
                -0.0811673,
                0.144575,
                -0.0946251,
                -0.0442989,
                0.194767,
                -0.0728566,
                -0.0143166,
                0.0863565,
                0.0545856,
                0.0168899,
                -0.0247309,
                0.122566,
                -0.0866535,
                0.00686259,
                0.026536,
                -0.103586,
                -0.034463,
                0.0644768,
                -0.00125368,
                -0.0948713,
                -0.0689245,
                -0.0125367,
                -0.0049055,
                0.0430027,
                0.0577325,
                -0.131421,
                -0.104438,
                0.0836659,
                0.0448634,
                0.123508,
                -0.0722873,
                -0.00630831,
                0.0883688,
                0.0258666,
                -0.0918373,
                -0.0283775,
                0.0362177,
                0.0808951,
                0.211399,
                0.0338513,
                0.161683,
                0.159729,
                0.0705747,
                -0.156117,
                0.0615776,
                0.0431963,
                0.088614,
                0.0514403,
                -0.0897839,
                -0.196125,
                -0.204396,
                0.162483,
                0.00478389,
                -0.0122096,
                0.0305486,
                0.097858,
                -0.054183,
                0.118533,
                -0.0286201,
                0.0545246,
                0.0234773,
                -0.0619127,
                -0.111571,
                0.0216104,
                -0.0162713,
                0.108414,
                0.0221041,
                0.0289627,
                0.118603,
                0.0772307,
                0.0054377,
                -0.264999,
                -0.114368,
                -0.0307056,
                0.0299434,
                0.0926006,
                0.116307,
                0.0658686,
                -0.035726,
                0.0225109,
                -0.105882,
                -0.0506196,
                0.108275,
                -0.0567445,
                -0.0602775,
                0.0526823,
                0.0520116,
                -0.0657666,
                0.0146109,
                0.122895,
                -0.0279121,
                -0.0284561,
                0.0303439,
                -0.0539376,
                0.0394367,
                0.0469462,
                -0.0835074,
                0.100637,
                0.00756717,
                0.0217915,
                0.087944,
                -0.0828671,
                -0.0740989,
                0.0713645,
                0.241326,
                0.012149,
                0.114545,
                0.0591608,
                0.0817192,
                0.138463,
                -0.0509184,
                -0.0605571,
                -0.282952,
                0.0888164,
                0.0467559,
                -0.0764328,
                -0.28532,
                -0.0136696,
                -0.11413,
                -0.00327672,
                -0.109572,
                0.107978,
                0.108956,
                0.0830545,
                -0.0857332,
                -0.12692,
                0.0220589,
                -0.129791,
                0.0394299,
                -0.109342,
                -0.115867,
                0.176684,
                -0.0211877,
                -0.0149773,
                -0.0425017,
                -0.0434267,
                0.204535,
                0.00434092,
                -0.0648595,
                -0.138633,
                -0.0194396,
                4.46668e-05,
                0.172179,
                -0.0775335,
                -0.0598106,
                -0.0522451,
                0.0128146,
                0.188256,
                -0.123891,
                0.0233511,
                0.232329,
                -0.133064,
                0.0995136,
                -0.235203,
                -0.0619897,
                0.0523265,
                -0.0494022,
                0.122722,
                -0.0293113,
                -0.140191,
                0.0285088,
                0.129781,
                0.271153,
                0.0266491,
                0.0328772,
                -0.0861773,
                -0.0566339,
                0.0168221,
                -0.0385007,
                0.0735529,
                -0.0824122,
                -0.0447316,
                0.171102,
                -0.0581868,
                -0.0413925,
                0.169543,
                0.0843556,
                -0.0713043,
                -0.121578,
                0.0719719,
                0.1171,
                -0.0212509,
                -0.152812,
                -0.140478,
                -0.0947046,
                -0.0285979,
                -0.0614574,
                -0.0379868,
                0.0338647,
                -0.158004,
                0.0766283,
                0.0475284,
                -0.0140219,
                -0.0974518,
                0.309263,
                0.0219151,
                0.117201,
                -0.0718571,
                0.149342,
                0.029928,
                -0.12564,
                0.0563381,
                -0.0171944,
                -0.0708093,
                -0.0770582,
                0.0159866,
                -0.0364581,
                -0.0575525,
                -0.140756,
                0.0584568,
                0.0389369,
                -0.0484859,
                -0.0343225,
                0.0420144,
                -0.052982,
                0.271835,
                0.00424873,
                -0.0482378,
                -0.202982,
                -0.00237047,
                -0.100107,
                0.0340578,
                0.0122206,
                0.0430099,
                0.00575288,
                0.0940875,
                -0.0298777,
                0.0798644,
                0.00436132,
                -0.0927415,
                0.0422366,
                -0.00679995,
                -0.0696109,
                -0.109673,
                -0.0215847,
                -0.00181221,
                0.00647727,
                0.0731455,
                -0.0643342,
                -0.0448839,
                0.000823711,
                -0.0704341,
                0.0047307,
                0.148995,
                -0.100128,
                0.0579678,
                0.0558968,
                0.0741185,
                0.204909,
                -0.112139,
                0.0111997,
                -0.0172146,
                -0.0350643,
                -0.114448,
                0.0231746,
                -0.0158583,
                0.0175676,
                0.0895721,
                0.188366,
                0.0768634,
                0.11178,
                0.021787,
                0.0405622,
                0.0574377,
                -0.226248,
                -0.0723548,
                0.0358811,
                -0.193247,
                -0.0271117,
                -0.0083351,
                0.0220236,
                -0.0445437,
                -0.117228,
                0.0304564,
                -0.0168828,
                0.130734,
                0.0755476,
                -0.0201185,
                0.0198737,
                -0.115883,
                -0.111676,
                0.0991526,
                0.0710352,
                0.0405221,
                0.111915,
                0.185231,
                0.180067,
                -0.0782043,
                0.0705981,
                -0.052148,
                -0.207445,
                0.0321523,
                0.0203761,
                0.062738,
                -0.0517451,
                0.0647818,
                -0.0362614,
                0.0125356,
                0.166729,
                0.0349614,
                -0.160433,
                -0.0366084,
                0.0565155,
                0.0803581,
                0.0587627,
                -0.0446491,
                0.0397048,
                -0.101167,
                -0.164259,
                0.0605914,
                -0.101834,
                -0.130693,
                0.0720322,
                -0.234955,
                -0.0960713,
                -0.0491935,
                -0.213607,
                -0.0218539,
                0.0705777,
                -0.227436,
                0.0443776,
                0.0676679,
                -0.0193381,
                -0.00142402,
                0.0652129,
                -0.112836,
                0.0153652,
                -0.0145124,
                0.0711771,
                0.117947,
                -0.0275384,
                -0.246204,
                0.318465,
                -0.177391,
                0.0439555,
                -0.0190287,
                0.0693286,
                -0.105379,
                0.0699289,
                0.031641,
                0.0194194,
                0.0558993,
                0.0500041,
                0.0580665,
                0.0449694,
                0.0986253,
                0.154167,
                -0.0696737,
                0.0254982,
                -0.0172241,
                0.0517451,
                0.0782171,
                -0.0187263,
                0.293264,
                0.0824454,
                0.0290616,
                -0.041114,
                -0.0773532,
                -0.02878,
                -0.0119879,
                -0.0414421,
                0.0616482,
                0.0068933,
                0.00118601,
                0.0499557,
                0.00406717,
                0.125176,
                0.103795,
                0.18191,
                0.0450377,
                0.0707942,
                0.0123221,
                0.129745,
                0.0737221,
                0.128628,
                0.147397,
                0.0223571,
                0.236655,
                -0.150643,
                0.0248614,
                0.09819,
                0.0982467,
                0.0871685,
                0.0293525,
                0.104116,
                -0.064612,
                -0.144166,
                0.0813997,
                -0.05559,
                -0.12485,
                -0.0405648,
                -0.202447,
                0.19827,
                -0.0230352,
                -0.220446,
                -0.0385933,
                -0.0577013,
                -0.047995,
                -0.0242608,
                0.104643,
                0.054248,
                -0.0778091,
                -0.024782,
                -0.235459,
                -0.175775,
                -0.0759367,
                0.00556249,
                0.0674229,
                0.110704,
                -0.127831,
                -0.00773865,
                0.0390522,
                0.00181252,
                -0.147033,
                -0.0872418,
                -0.0759105,
                -0.00978983,
                0.13641,
                -0.0999624,
                -0.0622737,
                -0.0123894,
                -0.0587915,
                0.260421,
                -0.089981,
                -0.150881,
                -0.0926064,
                -0.0363562,
                0.127992,
                -0.0467345,
                -0.153874,
                -0.0489621,
                -0.0444156,
                -0.0883792,
                -0.117677,
                0.034815,
                -0.0503355,
                0.0960303,
                0.0599142,
                0.075652,
                0.102803,
                0.0216492,
                0.0365737,
                0.0629391,
                -0.0466528,
                0.141225,
                -0.0435917,
                0.163579,
                -0.0362728,
                0.050723,
                0.0668593,
                0.0390518,
                0.0201912,
                0.144439,
                0.0366582,
                -0.104543,
                0.071561,
                0.147979,
                -0.159106,
                -0.137722,
                0.0581836,
                -0.176341,
                -0.00833527,
                0.0792218,
                0.0688192,
                -0.0911528,
                0.121447,
                -0.00916006,
                0.0536912,
                0.11027,
                -0.0395422,
                -0.128912,
                -0.0915595,
                -0.231234,
                -0.0792348,
                0.101973,
                0.029755,
                -0.148056,
                0.138257,
                0.125583,
                -0.0138058,
                -0.0602848,
                -0.0367776,
                -0.0293026,
                0.0606147,
                0.218481,
                -0.052026,
                0.141019,
                0.0214939,
                0.0506023,
                -0.026051,
                -0.0788576,
                -0.035621,
                -0.0508818,
                0.193458,
                0.0181583,
                -0.0683364,
                0.0507314,
                0.0399889,
                -0.0129608,
                0.0524648,
                0.0145749,
                -0.0678745,
                0.116915,
                -0.103413,
                0.0517164,
                -0.0940357,
                0.114535,
                -0.0155472,
                0.0120604,
                0.053584,
                -0.00412827,
                -0.0480021,
                0.0404777,
                0.107225,
                0.103304,
                0.00176109,
                0.0103025,
                -0.0374185,
                -0.191758,
                0.248612,
                -0.0208271,
                -0.0233348,
                -0.114168,
                -0.0166409,
                -0.00482855,
                -0.117274,
                -0.115309,
                -0.0418552,
                -0.104688,
                0.234121,
                0.0376352,
                -0.179089,
                0.0186639,
                0.0209305,
                0.0230897,
                0.172649,
                0.0194576,
                -0.129016,
                0.20278,
                0.0381269,
                -0.063084,
                -0.0359654,
                -0.122474,
                -0.146127,
                -0.261535,
                0.170265,
                0.060151,
                0.0763393,
                0.043224,
                -0.0195953,
                0.00687826,
                -0.0561505,
                -0.00444524,
                0.0192082,
                0.116848,
                0.159219,
                -0.025823,
                -0.172434,
                0.11133,
                0.0691073,
                -0.071624,
                0.237641,
                -0.100582,
                -0.00552526,
                -0.183539,
                -0.000473268,
                -0.0460486,
                0.0475191,
                0.163669,
                -0.10707,
                -0.11882,
                0.109856,
                0.110537,
                -0.05883,
                0.14353,
                0.00767296,
                -0.0977182,
                -0.0522755,
                -0.124291,
                0.114415,
                -0.061565,
                0.0154341,
                -0.0782358,
                0.106316,
                0.0310251,
                0.100957,
                -0.0782935,
                0.0229176,
                -0.131788,
                0.0581591,
                0.0114103,
                -0.0385962,
                0.0718231,
                -0.0431435,
                0.0720097,
                0.03955,
                0.0205915,
                -0.0145533,
                -0.198966,
                -0.0475911,
                -0.196546,
                -0.0576871,
                -0.0178031,
                -0.0722848,
                0.100496,
                -0.0158735,
                0.0591761,
                -0.0387716,
                0.0905681,
                0.107994,
                -0.0687037,
                -0.00658251,
                0.154541,
                0.0912477,
                0.0913177,
                0.0154731,
                0.142559,
                0.00428683,
                0.0458563,
                -0.0440387,
                -0.0700714,
                -0.272114,
                0.00438171,
                -0.253746,
                0.113255,
                -0.140802,
                0.0348296,
                0.0775623,
                -0.0382309,
                -0.0264256,
                -0.020569,
                0.0689943,
                -0.0919638,
                -0.168891,
                -0.0245081,
                -0.066258,
                -0.0729209,
                0.0569437,
                0.0104809,
                -0.125754,
                0.053836,
                -0.0839431,
                0.00568313,
                0.0102709,
                0.0790889,
                0.054158,
                -0.142945,
                0.0284337,
                -0.155932,
                -0.0311236,
                -0.176957,
                -0.0336256,
                -0.0623779,
                0.109409,
                0.0789361,
                -0.136223,
                -0.0509834,
                -0.0302016,
                0.000944208,
                0.052227,
                -0.0462862,
                -0.10193,
                -0.022695,
                0.0181678,
                0.0651124,
                0.0415831,
                0.19845,
                0.0438658,
                -0.0704527,
                0.0613822,
                0.0228249,
                0.0308753,
                -0.18662,
                0.0497751,
                0.0589128,
                0.0223964,
                0.0757187,
                0.0411427,
                0.0901869,
                -0.00590821,
                -0.00636437,
                -0.0404185,
                -0.0627996,
                0.103303,
                -0.0138304,
                -0.0148751,
                -0.109894,
                -0.0974231,
                0.136567,
                -0.0505843,
                -0.0382949,
                -0.0721764,
                0.113006,
                0.0994888,
                -0.109328,
                -0.129448,
                0.108932,
                0.0331561,
                -0.0158897,
                -0.0797747,
                0.215777,
                0.016008,
                0.11464,
                0.100535,
                0.220369,
                0.107928,
                -0.051203,
                -0.12855,
                0.0141185,
                0.0178547,
                0.058807,
                0.168748,
                -0.157543,
                0.126335,
                0.0820608,
                -0.153944,
                -0.208989,
                -0.0487518,
                0.00187049,
                0.176079,
                -0.0252524,
                0.22622,
                0.0487608,
                -0.132276,
                0.0754743,
                -0.00834582,
                0.194247,
                -0.0909854,
                0.0112651,
                -0.156965,
                0.119759,
                0.0407131,
                0.054068,
                0.0430602,
                0.0779825,
                -0.19481,
                0.106445,
                0.0539876,
                0.154351,
                -0.0118638,
                -0.00937513,
                0.145554,
                0.0251842,
                0.10433,
                0.0978113,
                -0.0319656,
                -0.0516817,
                0.115867,
                -0.000340323,
                0.0601061,
                0.0461514,
                0.118955,
                -0.199536,
                -0.0686466,
                -0.044908,
                -0.0146352,
                0.0180833,
                0.107045,
                -0.0607462,
                -0.102401,
                0.0251411,
                -0.0436079,
                -0.0344772,
                0.0908243,
                0.0301737,
                -0.112085,
                -0.0325436,
                0.0219846,
                0.152719,
                -0.00138164,
                0.00198672,
                -0.0408827,
                0.126152,
                0.0400568,
                -0.195853,
                0.0118327,
                0.0868466,
                0.0233295,
                0.0610465,
                -0.0809097,
                -0.0607726,
                0.0472695,
                0.150025,
                -0.033356,
                0.120346,
                0.0580819,
                0.131352,
                -0.065188,
                -0.0107076,
                -0.0473751,
                0.00788728,
                -0.0432759,
                0.0235614,
                0.0457942,
                -0.115828,
                0.0141519,
                -0.0465821,
                -0.250058,
                -0.0706988,
                -0.0265293,
                -0.00727482,
                0.191198,
                0.0551903,
                0.0319926,
                -0.138274,
                -0.156576,
                -0.0563049,
                0.0249524,
                0.00530372,
                -0.0890133,
                -0.134906,
                0.10513,
                0.0728874,
                -0.120207,
                0.156828,
